{"layers":[8,8,8,2],"neurons":[[10.7085867,8.976947,7.527607,6.48334074,4.936635,3.79660583,3.419387,3.493655],[0.712974,1.0,0.8142035,-0.9942223,-0.384995162,1.0,-1.0,-0.9999146],[-0.8909738,0.8247944,0.9909702,-0.285606831,-0.5023898,-0.373446882,0.241164669,0.169981152],[0.6728275,0.9167801]],"biases":[[0.201711014,0.350824177,-0.931651235,-0.223362848,0.460115522,-0.4366536,0.610048056,0.07899382],[0.08093803,-1.08255589,0.132210672,0.333679438,0.4385415,0.379348844,0.471695036,-0.8695834],[0.063693434,0.1810324,0.546918869,0.204459652,-0.19434762,-0.440001667,0.417874575,0.247665465],[0.08044659,0.472610235]],"weights":[[[0.249473438,0.713963747,-0.486760229,0.23272638,-0.381196439,-0.5796502,0.272032976,-0.8474831],[0.7034107,0.3559674,0.4010822,0.176012322,-0.289549977,-0.451285779,-0.6091973,0.873982847],[-0.252805173,-0.0171555281,0.107342467,0.274804473,0.249076,-0.112192214,-0.4269858,0.5538767],[-0.112536691,-0.51219213,0.795737147,-0.312546223,-0.6041071,0.5188884,-0.112168357,-0.00587165356],[0.2660695,-0.08200364,-0.426845372,0.448389679,-0.2252945,-0.238854527,0.21342358,-0.389913142],[0.534517944,0.06599508,1.3881917,0.228344038,-0.217141956,0.134512648,-0.09977198,-0.07755336],[-0.6658172,-0.721906,0.1127253,-0.5818075,0.373063326,-0.07433845,0.2619233,-1.11555374],[-0.08771987,-0.439610243,-0.403487235,0.8167666,-0.137919813,-0.040073432,-0.0898091,-0.112559]],[[0.112163886,-0.338580936,-0.744618356,-0.344503462,1.00630617,0.103181809,0.363193959,0.320546448],[0.238698274,0.7818845,0.411865771,-0.342812657,-0.470150054,0.0443226025,0.2042199,0.658810258],[0.06771445,0.367922,0.3880922,-0.1718049,0.195355579,0.78479296,-0.6577537,0.119339347],[-0.3661723,0.0101300478,0.229905739,0.5253401,0.05708924,-0.301109135,-0.250141978,-0.160780072],[-0.4095968,-0.8270819,0.595491469,0.299023032,-0.08565787,-0.3641603,-0.7249116,-0.179694191],[-0.104754344,-0.6526934,-0.040227592,-0.466575027,-0.164056569,0.487199783,-0.0952992737,0.3018521],[0.04241784,-0.757569253,-0.09956809,0.418469042,-0.898121953,0.395066649,-0.274715364,-0.0370306969],[0.30130592,0.075069584,0.245971844,0.334948331,0.35988915,-0.0324650854,-0.114429668,0.176593214]],[[-0.0581258759,0.5809783,0.3143021,0.2306767,0.555538,-1.04351008,-0.8089582,0.255208462],[-0.759898961,0.768627,-0.457051277,0.547839344,-0.218714356,-0.392402053,0.0168625116,0.7868016]]]}
