{"layers":[8,8,8,2],"neurons":[[13.7101183,9.77008152,7.99760056,5.93724537,4.60354,2.82752919,2.23488665,2.0522697],[-1.0,-0.9998167,-0.999679,0.6687581,0.999999464,1.0,0.999983549,-1.0],[-0.9055538,0.7308039,0.906888545,0.0037333793,-0.5010002,0.971189559,-0.95751065,0.486425579],[0.9782074,0.8434887]],"biases":[[-0.4421163,-0.380429327,-0.1907323,0.302783847,-0.303270221,-0.404285371,-0.5374428,0.5123178],[-0.603076458,-0.0463950559,0.3752581,-0.1853425,1.2818768,-0.295498431,-0.738479555,-0.7464674],[-0.372999758,0.430953056,0.98420316,-0.9752187,-0.0506853461,-0.00130935013,-0.709758162,-0.510815144],[-0.470631659,0.723438859]],"weights":[[[-0.574751,-0.5920498,0.555497766,-0.3383255,0.825995,-0.41094774,0.219327971,-0.193272978],[0.187468633,-0.7050277,-0.278095484,-0.0250901729,-0.346112758,0.53732276,0.7084935,0.282300234],[0.016368866,-0.307574421,-0.324886918,1.04451263,-0.832692266,0.153718174,-0.5786108,-0.426148057],[-0.09578743,0.05929339,0.7531737,-0.361417681,-0.253648818,-0.451851,0.146611556,-0.0157492161],[0.385143757,0.06075719,0.53349334,0.116406433,-0.6535381,0.330294758,-1.23556137,0.146563739],[0.717564046,0.5507531,0.216544,-0.133941934,0.23024565,-0.17681995,-0.323677659,0.313035727],[0.6742637,-0.146753877,-0.241172582,0.102820158,0.216251045,0.351066679,-0.4014219,-0.482934624],[-0.30925554,-0.405025572,-0.6020814,-1.07650828,0.0291388631,0.31606847,0.407995462,0.0151994824]],[[0.4671837,-0.0242919326,0.306758821,-0.290232778,-0.257016659,0.04706063,0.7553768,0.731005669],[-0.319937825,0.09831366,0.335831046,0.9280832,-0.29638952,0.228091568,0.254190683,0.192973271],[1.13012218,-0.336238921,-0.155070275,0.4393838,0.195775971,0.988278568,-0.496405035,-0.182937473],[-0.2794923,-0.722454,0.6766987,-0.2708661,0.7662091,0.0516809672,0.150835112,0.133958742],[0.295986235,0.2592312,-0.6312736,-0.158419013,-0.5636984,0.180628762,-0.173894644,-0.08704868],[-0.5830299,-0.5093947,-0.214307755,0.986499846,-0.06799132,-0.09583616,0.350376368,0.03870614],[0.682433248,0.269226372,-0.313971728,0.4991011,-0.9559117,0.6891513,0.28875953,0.9233634],[0.09944047,-0.5652926,-0.28439784,0.0787005,0.14000532,0.466273457,0.6262221,0.992994845]],[[-0.6062974,-0.3053732,0.707573056,1.14993417,-0.5426626,0.85850656,-0.9338724,-0.507517934],[0.00695776939,0.28704983,0.484665871,-0.185049266,0.757297754,0.288409382,0.1327887,0.192904755]]]}
