{"layers":[8,8,8,2],"neurons":[[3.469197,8.852805,7.70114756,6.853653,5.50699329,4.418689,4.10274744,4.3146534],[0.999975,0.991036952,0.9999828,-0.7819409,-1.0,0.9999991,-1.0,0.9742869],[-0.9629833,0.861041367,-0.986418366,0.7607057,0.152022466,0.862846732,-0.994901,0.76723063],[0.9936259,0.8267325]],"biases":[[-0.00633977354,0.24058716,0.189015478,-0.0107843578,0.7137851,-0.6075662,-0.0711124241,0.8124837],[0.280279934,-0.7498641,0.0110807866,-0.1398912,0.174035549,0.08034859,-0.6773435,-0.355049253],[-0.06042777,0.36826396,0.0718179941,-0.121874779,-0.3372717,-0.140777349,-0.09007995,-0.403616756],[0.280195832,0.323527634]],"weights":[[[-0.6297451,0.5316642,1.03361154,-0.2425928,0.146751851,-0.614029765,-0.151871353,-0.214749038],[-0.370862842,0.3507812,0.279143274,0.81334877,-0.568796635,-0.05718112,0.08303574,-0.706214368],[0.156611562,0.844985843,-1.33829939,0.6781846,0.204600558,0.5118892,-0.252442122,0.2553446],[-0.4669275,-0.603536665,0.1535689,-0.09850606,0.856970668,0.2725962,0.448396564,-0.514209747],[-0.411397,-0.21914725,0.198169738,-0.4734242,-0.965246141,-0.0810594559,-0.49162662,0.211554721],[-0.067486316,0.48533237,-0.774474,0.179756746,0.9685336,0.142977759,-0.05823105,0.50636],[-0.813138068,-0.6620424,0.459297717,-0.3991848,-0.3503439,-0.458424449,0.109103158,-0.499840617],[0.139439821,0.398221552,0.3135336,0.342960358,-0.365582258,-0.280231833,-0.0448008031,-0.6520495]],[[-0.6498866,-0.895207763,0.009017363,-0.09477019,-0.5739917,-0.184566319,-0.1648389,-1.05239022],[0.0702687949,0.7284592,0.38304764,0.212306231,0.380339622,0.08225015,0.249539375,0.479833484],[-0.531570137,-0.293317258,-0.53112483,0.426417857,-0.005446136,-0.5652631,0.283513784,-0.0352861062],[0.110955492,-0.427479446,0.278550535,0.0545332879,-0.9878038,0.6810769,0.380957156,-0.09378026],[0.102032885,0.492365658,-0.323259652,-0.278190255,0.166205928,-0.151598424,-0.4944852,-0.17495504],[-0.6775119,0.541829,0.317299575,-0.159600288,-0.6673191,0.225391358,-0.217574343,0.0341830477],[0.0177228674,0.173966616,-0.703364968,0.107969388,0.4779122,-0.5770391,0.472598016,-0.7896809],[-0.398778021,-0.2697426,0.323672324,-0.348175526,-0.16598627,0.65137583,-0.4317171,0.244560525]],[[-0.736155331,0.7111449,-0.6210843,0.27609995,0.382425368,0.495998025,-0.0604039,-0.127181068],[-0.272011,0.5112478,-0.08391007,0.354031861,-0.18181017,-0.08571831,0.102297895,0.00435511768]]]}
