{"layers":[8,8,8,2],"neurons":[[3.045038,10.0259943,8.586969,7.11393166,6.25257,4.810416,3.79892659,3.48635387],[1.0,-1.0,-1.0,-0.99999243,1.0,0.9999001,-1.0,0.9845632],[-0.4837531,-0.9856488,-0.9976505,-0.999637365,0.138731763,0.888929069,-0.975840867,-0.413223118],[0.9999867,0.862678]],"biases":[[1.2948221,-1.39143693,-0.443630338,1.00126791,-1.55945408,-0.8873865,0.395626783,-1.183616],[-1.31871319,0.5168585,0.8779458,-0.413455546,0.8516036,-1.4209553,1.03351915,1.60600245],[1.66367114,1.27217042,-2.46809363,1.09950817,0.9411583,-1.05019808,-0.6284024,-1.07561016],[2.58922029,0.8329072]],"weights":[[[-2.47833657,0.368182719,1.82731616,1.07746208,0.0654339343,1.316591,-1.90658951,-0.5119508],[-0.699404,-1.09704423,-1.01265419,-1.74655461,-0.259672344,-0.0259219855,0.249805957,0.223415121],[2.4792676,-1.77314126,-2.608912,-1.77708685,0.787247837,-0.3786502,1.5358572,1.20961392],[1.31531084,-1.648059,1.76140666,-0.59553045,-2.54469585,0.698879957,-0.0947492,2.49875331],[0.24180235,0.8507126,1.04543853,0.195804551,-0.0908494443,0.0389173776,-0.307576835,-2.19886017],[1.17289174,0.351493,-0.924536645,3.32937121,-1.78936458,-0.14287141,-1.319752,0.120677829],[-0.187011778,-1.10556757,-0.278375655,-0.380307376,-0.291011631,-0.5439521,0.907747,-0.5264604],[-0.2520993,1.41628051,0.6636283,-2.16845179,-0.870728731,0.431384921,-0.027071014,0.169197842]],[[1.76990557,-0.743741632,-0.407087624,1.05706692,-0.305553734,-1.44673324,-0.3953317,-2.74071646],[-0.893612742,0.196890309,1.33837092,-1.988243,-1.28828,-2.10601163,-0.8661071,-0.780534],[0.736164033,0.2518618,2.22845078,-1.35971522,-2.18004036,-1.33184671,-2.93318439,0.0592627749],[0.9377938,0.4690901,0.24838677,0.6427649,0.00144390017,-2.68170285,1.59731436,-0.718358755],[0.444049358,1.49937093,-1.34171891,0.9855651,0.08129059,0.216917,0.135704637,-0.268999547],[0.04831762,-0.214077339,-0.7612749,-2.43384767,-1.3119725,0.2340052,-0.320795,-0.23696515],[1.210108,-1.39467144,2.02892113,1.50090468,-0.06807752,0.616295338,0.410607636,-0.798481],[0.677848,-2.61785865,-1.25474966,0.89002043,1.07031178,-1.35247409,2.72101474,-0.0216164142]],[[-1.18676531,-0.9341533,-1.03222072,-1.44177508,0.351469666,-0.910594344,-0.5293979,0.8502444],[1.90250707,-1.235763,-1.00378156,-0.876191735,2.30252934,-0.106190369,1.70260489,0.6479187]]]}
