{"layers":[8,8,8,2],"neurons":[[2.90610266,9.754678,8.57811,7.11706543,6.41481,4.83823061,3.94415736,3.70629215],[-1.0,-1.0,-0.9999974,1.0,-1.0,-0.9998698,0.9969948,-0.9760332],[-0.9944143,-0.9999347,0.995538235,-0.6824721,-0.9999902,0.970477641,-0.99532783,-0.62660706],[0.999983966,0.99067533]],"biases":[[-3.96673417,0.3000366,-2.075162,0.3213027,0.04473886,0.1607263,-0.6612321,-1.66296816],[0.1724451,1.74053407,-1.25663126,2.17623,-0.288847446,-1.08329248,-0.616412461,-0.176875621],[-0.9815227,0.320933282,0.8564142,1.38128972,-0.409220219,-0.9725636,0.5730415,0.9944345],[-0.115852192,0.3898251]],"weights":[[[1.10985029,-0.70893234,-0.900615752,1.28072274,-0.6557425,-0.982645333,-0.114702687,-0.9900672],[-0.191654667,2.040323,-1.50643337,0.0418881327,-1.340382,-0.636068,0.356421947,-2.21039844],[-1.22774374,0.870280445,-1.89723718,0.5274136,-0.7879659,0.495837152,0.9963384,0.217202529],[-0.438345373,1.03653479,1.60601628,0.8517593,0.7697439,-2.619515,-1.023934,-1.45604789],[-2.16252971,0.734657943,1.09090424,0.396638155,-1.44762278,-1.23822,-1.555717,-1.598271],[-0.328596562,-0.307919979,-0.287874639,-0.874610543,0.658771634,1.79681182,-1.62559021,0.6498239],[-0.924191236,-0.129744127,0.1977391,1.66188693,-1.06988347,-1.27661109,0.0916413739,1.88100314],[0.456873775,-1.05797338,2.79886031,-0.677770734,-0.8966541,-0.961330056,0.152537271,-0.653096557]],[[0.584769964,1.65150487,-1.29241383,-0.08442381,0.7948009,-0.5134478,-2.249484,-1.63417208],[0.7246218,-0.146652475,0.765099168,-0.606654048,1.38025761,1.07859027,-0.9008085,0.1835145],[-1.66460252,-1.54977942,-0.134901375,0.5021458,1.42555726,-1.41896057,-1.15243852,0.512815833],[-0.07771771,-1.56663179,1.143066,-1.32896,0.135732278,1.93720007,0.0474571064,-0.6536894],[0.8162901,0.6642947,1.71740162,-3.30094051,-0.782922447,0.0769386739,-1.06385267,-1.17796791],[-2.39482141,-1.46082258,-1.32806635,-0.145184651,1.232819,2.84854579,1.607029,-0.5258812],[0.236404568,2.18350554,-1.03150177,0.235958338,1.328742,-0.265807927,-2.5756166,-1.21080613],[0.670750141,0.06931493,-0.85451,-0.193901554,-0.05987577,0.444805235,0.0153205991,1.31264877]],[[-1.41816437,-0.591438,0.3659774,-1.60122287,-1.3715297,0.499371,-0.801745653,0.2090065],[-1.11876023,-1.66351426,0.650374532,-0.923110247,0.7049589,-1.34704971,-1.11366689,1.36873484]]]}
