{"layers":[8,8,8,2],"neurons":[[2.72821426,10.3605642,8.661109,7.42958736,6.38220835,5.33578539,4.089316,3.67416835],[0.999771535,-1.0,-0.855648637,-0.8921149,0.999995351,1.0,-1.0,-0.932076037],[-0.998832643,-0.9781032,0.984183,0.930139363,0.9574306,0.7222636,0.020223422,0.7682795],[0.9806483,0.407430917]],"biases":[[0.2947585,-0.49985224,1.47517717,0.326775134,0.49127543,1.01266,-2.35279417,0.057583347],[0.108391196,0.0914454,-1.11206245,-0.7655349,1.06971478,0.157452151,-0.9815363,0.0148278326],[-0.351290226,-0.843850255,1.47584391,0.104708239,-0.9057693,0.230210409,-0.9020118,0.46895808],[-0.913938165,0.904646754]],"weights":[[[0.624579549,-0.6290786,0.1997988,0.163317844,-0.633233547,-0.2643781,2.04881668,0.9182487],[0.0594804,-1.01888824,-1.60426569,0.061033532,0.3518921,-0.5289797,0.1647009,0.06424245],[-0.103567891,0.0590686277,0.280905962,-1.32335055,0.793060541,-0.04188527,0.9316918,-0.474451244],[1.05513954,0.190093234,0.7658393,-0.6022196,-1.05183017,0.297745228,-0.055858776,-0.6316619],[-0.02797556,0.59176755,1.03416169,-0.332030177,-0.877032459,-0.150565416,0.8667542,-1.16285992],[0.29741025,0.110337906,0.391104281,1.19248939,0.812754333,0.0135820508,-2.141115,0.9251439],[0.5725764,-0.7482313,-0.7746281,-1.79886913,0.988413,0.0658125654,-2.08922839,0.7802027],[0.8829986,-0.004239112,0.5614401,0.173920184,-0.194907725,-1.211162,0.324786,-1.04253733]],[[-2.177614,-0.2807275,-0.374711752,-0.4849491,-0.0134505779,-0.90791136,1.22066557,0.09261888],[-2.01569772,-0.5892906,0.81908536,0.5837063,-1.02986264,-0.220500991,-1.416682,-1.15149319],[0.786626,0.333930135,0.240658358,-0.172705665,0.135393173,0.8342462,0.786578834,-0.382335037],[-1.10140455,-0.195708632,0.0730885,-0.78299737,0.6390028,1.438233,0.860028,-0.6512005],[0.6590608,-0.1270357,-2.78913283,0.244350478,0.858858943,-1.15571415,0.375859946,-0.5773558],[1.17542183,0.8178086,0.03360127,0.261474848,0.4955678,0.812970936,1.404895,-0.7329671],[1.09295726,0.3201629,-0.1362611,0.4440875,-0.358996749,0.285139143,0.273692429,-0.833437562],[-1.87229753,0.204483256,-0.3022154,-0.349388719,0.530534446,0.159301922,-1.42993748,0.07139572]],[[-0.2459787,-1.03620148,0.48881036,0.8902388,0.72336334,-0.5041837,-1.47536588,0.470179349],[1.05423737,-0.129718527,0.709275,0.431200325,-1.26297188,1.41207635,0.377914935,-0.6032312]]]}
