{"layers":[5,8,8,2],"neurons":[[4.130046,8.751025,5.894136,3.32490063,2.53377652],[0.370189846,-0.77886945,-0.997610331,-0.8673279,-0.9203476,0.995212257,-0.9625501,0.999999464],[-0.110440351,-0.653361142,0.6907159,0.06792397,0.00464040972,0.0118564768,0.174532712,-0.4762444],[0.75699383,-0.128958479]],"biases":[[-0.4148646,0.243779629,-0.0636116862,0.3367905,-0.105214559],[-0.289782941,-0.0207092166,-0.350507319,-0.04529029,-0.2759595,0.0301413536,-0.2230961,-0.3846305],[0.440043241,-0.31853205,0.314335585,0.120202661,0.0229537636,-0.8845061,-0.193423137,-0.09875611],[0.1721049,0.5167971]],"weights":[[[0.230574876,0.491293669,-0.242522046,-0.6022228,-0.450471044],[0.274753571,-0.04938981,-0.408478022,0.276096463,-0.0926216245],[-0.293881774,-0.257340074,0.3972877,-0.786786854,0.286639661],[-0.2380506,-0.193892956,-0.225759014,0.0199655965,1.052694],[0.002965048,-0.210853338,0.322133124,-0.114167489,-0.395259261],[-0.394834042,0.7134018,0.2011697,-0.452045083,-0.516599834],[0.419270933,-0.15944545,-0.1257086,-0.3577314,-0.06406801],[0.0757709146,0.8699669,-0.0384702235,-0.0982426256,0.2227548]],[[0.274570078,-0.08700632,0.5358294,0.07481943,-0.6299918,0.25141266,0.72103405,-0.256892741],[0.231518224,-0.294021726,-0.243888885,-0.016635634,0.125998423,-0.29059118,0.214836732,-0.42310065],[0.165967226,-0.231203735,-0.03508979,0.562431931,-0.181735218,-0.454396069,-0.173004031,0.864714444],[-0.171494871,-0.09250384,-0.6383767,0.09583835,0.0107595995,0.3515324,0.4184394,-0.5516428],[0.3991537,-0.233498082,-0.166227221,-0.3054272,0.3995319,0.5499778,0.651533,-0.33117944],[0.5429163,-0.194124728,0.222941041,0.2442373,-0.214783937,0.3635262,-0.09050734,0.331846029],[0.998378932,0.209073722,0.379695773,-0.08493708,0.26921016,0.5222118,-0.227371484,-0.0226684213],[-0.132941559,-0.07977218,-0.06504014,0.381714761,-0.0548242331,-0.410887629,0.07367091,0.263284236]],[[0.359449565,-0.105993658,0.6064346,0.7506172,0.234604925,-0.486889541,1.23563552,-0.223925859],[0.463007271,-0.06753045,-0.5808351,0.10436403,-0.134900063,-0.224617749,-0.159944609,0.449678421]]]}
