{"layers":[8,8,8,2],"neurons":[[0.5047853,0.4892518,0.5375461,0.6885663,1.15059817,9.495569,7.299682,5.65352774],[0.9999998,-0.9996854,-0.9992625,1.0,-0.844772,-0.999995768,-0.9999931,0.996252537],[-0.183603525,-0.5874841,0.284551382,0.324599534,0.380353034,-0.4001623,-0.8339277,0.5429575],[0.0653497651,0.6797622]],"biases":[[0.139066711,0.3478289,-0.0405132174,0.123618461,0.1410682,-0.113388561,-0.11084193,0.168087438],[0.317833781,0.221379057,-0.4186348,-0.0199589431,0.429894447,0.243829682,-0.589707851,0.1082986],[-0.180394873,0.366448462,0.0478161648,0.159359276,0.0240562856,0.488881439,-0.399881423,-0.313455075],[0.148509488,-0.14847745]],"weights":[[[-0.364389926,-0.120648921,-0.3859567,-0.114515647,-0.251654148,0.344195068,0.505930066,0.302169561],[0.211296856,0.3486259,-0.5280425,-0.0806966,-0.135622337,-0.175300524,-0.00236751139,-0.477561176],[-0.08609821,-0.0438779145,-0.020919621,-0.311178565,0.141270712,-0.270424247,-0.476823062,0.467410445],[-0.0179627389,0.0152516663,0.331602931,0.01602903,0.1266255,0.507852733,0.442066342,0.424354166],[0.256184042,-0.455914974,0.3641739,-0.253003776,0.0264962167,-0.1202438,-0.349574685,0.365748167],[-0.483722925,0.0276804566,-0.185711175,0.5234252,0.294429,-0.308495045,-0.6151887,0.04873389],[-0.100631252,-0.13584204,0.377251148,0.6367107,0.357365251,-0.423007429,-0.2501652,-0.139604032],[0.066411674,-0.313532174,-0.232111692,-0.102313414,0.337061554,0.255939782,-0.155093715,0.2935844]],[[-0.08129555,0.308914,-0.4632818,-0.16091007,0.375596374,-0.286912262,-0.427324,-0.3153528],[-0.4175908,0.207332835,0.00711146,0.217122778,0.0205172747,0.578663349,-0.101140946,-0.131060347],[0.390828431,0.2558257,0.198142439,-0.0466627032,-0.291504145,0.289990634,-0.0187377483,0.380811542],[-0.5517469,-0.143908784,-0.613950849,-0.271837354,-0.00759457052,0.329354584,-0.6370311,-0.070711],[0.08261422,-0.19456993,0.282655925,0.5796642,0.5366368,-0.364658952,0.300163448,0.191634282],[0.381275356,0.351750761,0.1059778,-0.024422735,0.104280293,0.4764735,-0.254397362,-0.5037553],[0.478359252,-0.323725045,0.5035867,-0.515048146,0.497956336,0.0985508561,0.226418152,0.161498368],[0.27533704,-0.3724046,-0.07394402,-0.145460933,-0.100839838,0.134160489,-0.264655,0.130551368]],[[-0.0588860437,-0.104827866,-0.339210153,0.110542953,-0.5188608,-0.3279517,-0.227247447,-0.401898652],[-0.235707492,0.0145122856,-0.400161445,0.166027829,0.344072044,-0.452528,-0.519075751,0.474341]]]}
