{"layers":[8,8,8,2],"neurons":[[2.93167281,0.8794657,0.327054769,0.216951,0.17840825,0.16878061,0.180833071,0.223810419],[-0.413515151,0.246577367,0.762434363,-0.175407559,-0.470651716,-0.922533453,0.963487566,0.8713958],[-0.8694081,0.047508806,0.5747447,0.0381316952,-0.3359321,0.359955579,0.6805056,-0.425190777],[0.6639357,0.3539166]],"biases":[[0.218867585,0.3333422,-0.02752082,-0.0532202125,-0.126820862,0.038976118,-0.023208946,0.319284379],[-0.273392081,-0.2066835,0.47227788,0.381181657,-0.369583666,-0.566623747,0.4651974,0.5358781],[-0.188928291,0.5552394,0.282049119,-0.0396213681,-0.123583123,0.351406842,0.6047377,-0.5818795],[0.51218915,0.433613718]],"weights":[[[0.06613079,-0.196825877,-0.223834321,-0.143049881,-0.6382396,0.336193919,-0.224198058,0.06560621],[0.168863833,-0.106841177,0.0260910541,0.377065778,0.174548835,-0.0902469754,-0.04661332,-0.180774927],[0.167394057,0.156578988,-0.06418131,-0.0744053,-0.0578799844,-0.156747654,-0.279042453,0.1146093],[-0.2835611,0.16400145,0.0197448283,0.237873331,-0.0603952855,-0.158229709,0.4486053,0.120399341],[-0.211811364,0.433479041,0.6370042,0.169880047,-0.147715151,-0.22299923,-0.08715181,-0.299500257],[-0.3214787,-0.148579255,0.199627,-0.4596119,0.334929645,0.01199688,-0.0361673236,0.05885876],[0.28443104,0.09167725,0.553055167,0.4714644,0.199667946,0.358127177,0.5184172,0.624417961],[0.4067819,-0.5071534,-0.277651966,0.0275219232,0.4416866,-0.119745329,0.615712464,-0.1280097]],[[0.5492243,-0.00396057963,0.461031437,0.4126805,0.324433446,0.475388885,-0.3970694,-0.251232147],[0.287953317,-0.463507116,0.2342888,0.6192346,0.424287021,0.528401256,0.20321767,0.16871646],[-0.222581819,-0.313054621,0.306670964,0.114412993,-0.371495456,-0.380825281,-0.08427283,-0.345467865],[0.157470733,0.3460652,0.133014828,0.334745,-0.330633163,-0.155419722,-0.171059281,-0.136931434],[-0.331373632,-0.412633955,0.2628796,0.410765529,-0.543845057,0.009621516,-0.603064537,-0.06382417],[-0.0112954974,0.53582114,0.222918689,-0.0132593066,0.423557639,0.07728229,-0.197349861,0.20327951],[0.118142352,0.008382499,-0.09737569,0.386632681,-0.569551051,0.411218733,0.304614455,0.2662115],[-0.27220577,0.0480071157,-0.148456708,-0.162740126,-0.6457482,0.0522872657,0.172114268,-0.3826087]],[[-0.4857852,0.255094767,0.339346349,-0.03344816,0.303956062,0.0106654614,-0.08403166,0.4354357],[-0.242119163,0.6547525,-0.0169285685,-0.4378714,-0.2533859,0.460226,-0.52241236,0.4095971]]]}
