{"layers":[8,8,8,2],"neurons":[[5.26037931,0.6475528,0.363061339,0.2753137,0.245580345,0.24871859,0.2870031,0.3956149],[-0.986464262,0.774309754,0.8585173,-0.115302786,-0.299229473,-0.997804344,0.9373061,0.9160654],[-0.73690474,-0.171546087,0.7072138,-0.413637757,0.8756608,-0.6160521,-0.755815268,0.8901304],[0.204735592,-0.9002046]],"biases":[[-0.5974631,0.132717982,0.00157868862,0.160999462,-0.13599284,-0.5861671,-0.0487018973,0.222479671],[0.509959,0.262038738,0.5818658,-0.04603675,0.09472452,0.0248414278,-0.489409447,-0.212947518],[-0.273509353,-0.5323154,0.189358279,-0.3476366,0.502322555,-0.6078731,0.428210437,-0.178336889],[0.0384030938,-0.04388328]],"weights":[[[-0.482721657,-0.4829619,-0.470146418,0.0352353752,-0.0160664469,-0.209690943,-0.03346572,0.188035563],[0.193890274,0.0973825753,-0.149311811,0.0492913872,0.21785301,0.278848767,-0.66584903,-0.5185589],[0.1353958,-0.2513218,-0.464590728,0.111306936,0.441450834,-0.207373679,-0.234936029,0.7708194],[-0.021085754,-0.09209684,0.120559365,0.557135165,0.0620117038,-0.39623338,-0.12556228,0.0580782741],[-0.1873497,0.3802837,-0.120307058,0.633084059,-0.48522675,0.494414359,0.5010751,0.145705268],[-0.7924059,0.42798242,0.303258,0.066392526,0.02321732,0.33313483,-0.08455466,0.67501533],[0.49333185,-0.261150658,-0.442854434,0.330616474,-0.241134763,0.220615163,-0.376688242,-0.09853469],[0.30233115,0.8332914,0.122898743,0.4184655,-0.524897,-0.6056083,-0.215674877,-0.433333784]],[[0.322416961,0.234086424,0.5687257,-0.08849126,-0.1735193,0.426777363,-0.674373031,-0.0281825513],[-0.15134725,0.390210569,-0.115161344,0.323982,-0.454353243,-0.626057148,-0.5918609,-0.176893368],[-0.22065343,-0.291385233,0.5700772,-0.010100171,-0.1142806,0.148220524,0.411253,-0.06786806],[-0.1640782,0.137985289,-0.4801656,-0.158559114,-0.3169802,0.0296359956,0.36775887,-0.4116402],[0.06014,0.111789688,-0.06726518,-0.430480868,-0.393637419,-0.251019,0.2750265,0.2285511],[-0.03641063,0.526657462,-0.150187582,0.451753139,-0.15118444,0.10104765,-0.262362748,-0.07852041],[0.335780561,0.09906992,0.204427943,-0.505842865,0.6040446,0.238457188,-0.618456244,-0.431773841],[-0.661601543,0.18372412,0.246790335,-0.25463,-0.357391655,-0.579667449,0.193795487,-0.3299232]],[[0.139607549,-0.441481382,-0.0470878333,-0.176488191,0.03395918,-0.135674417,-0.349785119,-0.248258948],[0.1102808,-0.299879849,-0.229607716,0.223006219,-0.575911164,0.0382928848,0.35668993,-0.39037]]]}
