{"layers":[8,8,8,2],"neurons":[[2.77821779,3.69153118,8.748988,7.546214,6.358516,5.444876,4.065185,3.58868814],[0.992623031,-0.9998543,-0.9999988,0.8712895,-0.9999224,-0.9894531,0.9998461,-0.9886327],[-0.6535728,-0.1970273,-0.973400533,-0.6083694,0.700458765,-0.9975997,-0.9665091,0.572534],[0.884350836,0.5945584]],"biases":[[-0.505315661,0.403002977,0.863802969,-1.07276583,-0.307383716,0.292338848,-0.176952615,0.150345176],[-0.1781058,0.336822182,0.405556023,-0.178284287,-0.769195735,0.02933769,0.505482852,-0.127375245],[0.7387205,-0.124070555,0.05857563,-0.257247329,0.342567056,-0.312684864,-0.36404264,0.400977015],[-0.0769610256,0.466535449]],"weights":[[[0.16165325,0.357866853,0.729501,-0.699627042,-0.370125,-0.1559322,0.5591241,0.28813225],[-0.6004888,0.07720846,-0.305255532,-0.125463724,0.459533572,-0.351934344,-0.09823851,-0.196729824],[-0.08808037,-0.4614397,-0.6414545,-0.1483882,0.4809006,-0.321196616,0.136981189,-0.212115735],[-0.202567279,-0.4482335,-0.4145944,0.58818996,-0.0662844,1.01758969,-0.473447442,-0.07571477],[-0.113765687,-0.389220178,0.1751644,-0.9797657,0.32323283,-0.337440819,0.2931782,0.528013647],[-0.279940933,0.101226449,-0.544791758,-0.237617686,-0.18384859,0.7798002,0.0403601229,0.299089044],[-0.2216786,0.31884107,0.576986134,0.173643351,-0.7915892,-0.255726516,1.12059176,-0.228076279],[0.0455145538,0.704123259,0.241778374,0.102720305,-0.303407729,-0.07123004,-0.5846859,-0.941052556]],[[0.15429616,0.716276765,0.4419608,0.4211342,0.5958788,0.322689,-0.412696719,-0.4506886],[0.9152547,0.331806421,0.164249346,0.8303983,0.232716516,0.439403653,-0.5303669,0.0139863268],[0.4907363,-0.323518455,0.5439348,-1.16778338,0.7574866,0.374008417,0.180200189,0.5196507],[-0.0451737642,0.145055518,0.142994985,0.561292768,-0.5221772,1.20920265,-0.237678126,-0.31022054],[0.05428426,1.10628676,-0.67897445,-0.7498008,-0.255820334,-0.619463742,0.115636468,-0.574375],[-0.738442659,0.362818837,0.325807869,-0.281996131,0.307108074,0.877911448,-0.488913178,-0.28571707],[-0.542258859,0.103671327,0.0724067539,0.05902429,0.2848624,0.5780567,-0.382768661,-0.232721448],[0.496687,-0.6143518,-0.0852915943,0.103093848,0.1872196,0.388058841,-0.7290965,-0.2711437]],[[-0.08060655,-0.667454243,-0.221166775,-0.443194568,0.416032284,-0.0301333219,-0.779374957,-0.474201381],[-0.5147983,0.518096745,0.186736226,0.834354937,0.322948724,0.03998457,-0.173567921,0.557276547]]]}
