{"layers":[8,8,8,2],"neurons":[[4.11725473,9.862062,8.579134,6.51206446,5.674799,3.61901021,2.91467476,2.71383381],[-1.0,0.952290833,0.884378552,0.99999994,-1.0,-0.775385,0.6321941,-0.9820415],[0.95859,-0.3482856,-0.439254642,-0.5758043,0.8106036,-0.8735403,-0.0277141351,0.8685906],[0.9878158,0.9899339]],"biases":[[0.460272431,0.9301371,-0.110436991,-0.6199673,0.280033082,-0.132928908,-0.127837971,0.404337525],[-0.338602543,0.337513745,-0.157460436,0.333580881,-0.477135241,0.218939885,0.145928591,0.08528669],[0.0227943063,-0.481448948,0.0466642976,0.6896792,0.3039313,-0.662735462,-0.09005749,-0.008939996],[-0.538095653,0.137793362]],"weights":[[[-0.677362144,0.138099089,-0.1649908,-0.9948094,-0.5315966,0.5396589,-0.8848189,0.6651721],[-0.08715162,-0.0231048018,0.1494333,0.3972677,-0.417718232,0.438691974,-0.245874733,-0.09748936],[-0.234783322,0.02202113,0.4087004,0.53933,-0.5241622,0.279491156,-0.679893732,-0.2842028],[0.3592373,0.367231369,0.5114082,0.372958034,-0.4632789,-0.5032835,0.07183821,0.3204317],[-0.567358732,-0.0274368078,-0.215777189,-0.6430926,0.06334214,0.0551797077,-0.415339351,0.105713092],[0.428111255,-0.8194384,-0.305512428,0.586899042,0.68364954,0.0287266076,0.231209129,-0.291930377],[0.9204824,-0.13820222,-0.727974057,0.481314063,-0.413037419,0.174559951,0.3607889,0.7162779],[0.760309,-0.0546705127,-0.527126849,-0.168490231,-0.398907721,0.144648537,1.21321225,-0.443943262]],[[-0.39567697,0.922868252,-0.087865755,0.3308884,0.110943519,-0.6678418,-0.424605846,-0.243654743],[-0.558925867,0.1973483,-1.666203,-0.2189792,-0.8361968,-0.293705821,0.46611464,0.300368845],[-0.405031055,-0.226732448,-0.2560474,0.122912124,0.3518517,0.0157805681,0.19391799,0.368683368],[0.0662370548,0.282258332,-0.6697973,-0.4344526,-0.0120570213,0.313126326,0.421541035,0.567541838],[-0.204751551,-0.02020707,-0.6184782,0.8401493,-0.004515618,-0.1274531,-0.62036103,-0.6466267],[0.7533501,0.1792262,-0.5571055,-0.127117783,-0.354536355,0.4277382,0.210211068,-0.368233263],[-0.196766779,0.0162175223,0.5829012,-0.603638053,-0.757839859,0.3162245,-0.3419803,0.364738],[-0.599056065,-0.595540047,0.172053814,0.489734977,-0.205533668,-0.3768998,0.3518834,0.0588653535]],[[0.47855413,-1.1092484,-0.8292001,0.2355393,-0.0008930117,-1.33216739,0.347282469,0.9882561],[0.5828007,-0.178603321,0.347991377,-0.6888803,-0.391896129,-1.16482747,0.554248154,1.10107267]]]}
