{"layers":[8,8,8,2],"neurons":[[4.053631,5.267882,3.50564,3.219955,1.14863849,0.5475875,0.39039278,0.334683657],[0.9960665,0.998262,-0.5518036,0.991852045,0.999154747,0.9316404,0.9996282,0.8225391],[0.016846016,0.323550433,0.0709025562,-0.121286876,0.215180457,-0.18072468,-0.8568928,0.6148802],[0.2264547,0.203713819]],"biases":[[-0.16390425,0.469362378,-0.318811774,0.236550316,-0.181994259,-0.07867056,-0.2879722,-0.1356098],[-0.06820279,0.08992118,-0.102405727,-0.0239127278,0.481909037,-0.229073226,-0.451228738,0.4963553],[0.317934036,0.09409171,0.00673598051,-0.4067737,-0.177369535,-0.181337416,-0.4617195,0.20126234],[0.00649899244,0.125620469]],"weights":[[[0.44036293,0.257162571,0.429201365,-0.466980934,0.117829025,-0.09159917,0.107588112,-0.2540306],[0.290478,0.341418147,0.05510086,0.0100720525,0.241423,0.231444821,-0.144953549,-0.3446871],[-0.239157379,-0.06591731,0.278027534,0.07214147,-0.3854798,0.0484526753,-0.2356562,0.297062278],[-0.01820749,0.0964033,0.493707418,0.2960341,-0.483259082,0.226950869,-0.111400425,0.3876226],[0.359782457,-0.101656139,0.394673824,0.414018035,-0.138711989,-0.195383132,-0.09792954,0.201192722],[0.252244473,0.145484313,0.111227453,-0.040835917,-0.371333,0.145411715,0.2704606,0.2800454],[0.415703416,0.439998746,0.09195298,0.125907645,0.06113261,-0.136831343,0.3532846,-0.351616025],[0.472564816,0.14956902,-0.216094553,-0.2332409,-0.317629933,0.1610962,-0.3533615,-0.334944248]],[[-0.03206426,-0.0489535928,0.08724445,-0.234725773,-0.0349008441,0.2835883,-0.2781577,0.133001074],[-0.0623771548,0.372837663,-0.1693936,-0.2941115,-0.4181757,0.115478933,0.127065167,0.3804325],[0.162608489,0.453451753,0.228887185,-0.0115985274,-0.126688659,-0.3644917,0.350082874,-0.360272169],[0.328273535,0.106726825,-0.4651276,0.35751307,-0.468852162,0.3438655,-0.239872038,-0.4522779],[0.365075,-0.448916554,0.4161507,0.05102116,0.240007386,0.346489668,0.153744683,-0.06905919],[0.132678971,0.275370479,0.192001328,-0.309802651,0.314628124,-0.477578163,0.3155837,-0.218974769],[-0.416381,-0.0755415559,0.009090483,0.220249876,-0.163625419,0.07384628,-0.04417461,-0.49146843],[0.143016323,0.353453517,-0.305224419,-0.266853929,-0.332345724,-0.149076879,0.240002736,0.422433972]],[[-0.161268413,0.106816709,0.07628888,0.451058626,0.167578325,-0.440327883,-0.3434888,-0.2741443],[0.487629533,-0.2071312,0.330469847,0.467442632,-0.240268886,-0.3838234,-0.4087211,-0.316883564]]]}
