{"layers":[8,8,8,2],"neurons":[[1.6972574,1.73977017,2.03639746,2.87266874,12.0107794,0.487690777,0.5325878,0.676452339],[-0.99999845,-0.8388785,-0.9981788,-0.857609,-0.7502382,0.999999166,0.995981336,-0.999808],[0.943675041,0.04487092,0.56463027,-0.6721586,-0.384637982,0.767716467,0.0100973248,-0.7243229],[-0.5562448,0.7893128]],"biases":[[0.7559763,0.717992663,0.0504691079,0.0139671713,0.152519569,-0.150639966,0.612930655,-0.497684181],[0.517290235,0.0562183559,0.349093139,-0.102258183,-0.453911334,-0.271779835,-0.3303726,-0.448099554],[0.4458627,0.5176517,0.190765277,0.0482073128,0.417887,-0.250696063,0.132862121,-0.309743226],[0.0784331,0.290903747]],"weights":[[[-0.4082392,-0.042610243,0.20949553,-0.0462796,-0.5587703,-0.105467647,0.122979581,-0.565244138],[0.127744064,-0.583293736,-0.1322531,0.257895231,-0.0456983671,-0.096011,-0.473907173,-0.146419823],[-0.236743808,0.107921608,0.433525443,-0.3474361,-0.282764554,-0.182682142,-0.1219358,0.044664517],[0.403521657,0.4898778,0.8509541,-0.134345248,-0.388935745,0.0306471139,0.219715551,0.6997904],[0.09250598,0.6378115,0.512731731,0.0363724381,-0.204439461,0.274244666,-0.654419661,-0.3911366],[0.5483536,-0.4442228,-0.237091258,0.115860015,0.6715876,0.107090145,-0.03895998,-0.7137171],[-0.2978183,0.367729,0.469438732,0.06864619,0.230042353,-0.140297815,-0.5910426,-0.3442889],[-0.129812837,-0.259375453,0.07382317,-0.0811108649,-0.280667961,-0.354889333,-0.192039326,0.330024958]],[[-0.714751,0.0898360759,-0.789660633,-0.1841259,-0.222112268,0.166486189,-0.407909453,0.187671617],[-0.3453235,0.8483514,0.309697419,0.463565737,-0.72701025,0.4317492,-0.213273,0.164513543],[-0.479030371,0.32220763,0.192860231,-0.11238189,-0.8261179,-0.0124504715,-0.0400805473,0.231227592],[0.031978935,0.2589435,-0.317619979,0.453836858,0.7180812,-0.4889329,0.3576979,-0.129925385],[0.246400163,-0.173811227,0.0514110178,0.354217052,0.153043672,-0.467551559,0.305499732,0.08960709],[-0.289837062,-0.207035914,0.164595068,-0.296273649,0.0576798767,0.4071067,0.458009064,0.107889526],[0.3712409,0.08361776,-0.0505069047,-0.3685682,0.06558886,-0.368247628,-0.0726643354,-0.4420305],[-0.325532556,-0.0137945116,-0.5846692,0.351750165,0.363178521,-0.580938041,-0.5080616,-0.133472666]],[[0.05012638,0.04983995,-0.3204407,0.554365456,0.0569417924,-0.0495874,0.1690777,0.1981653],[0.55356276,-0.1584878,0.07661161,-0.6054137,0.07644741,-0.02325046,0.6443806,0.201585382]]]}
