{"layers":[8,8,8,2],"neurons":[[11.2330971,9.150133,6.92303753,5.8044014,3.34413171,2.479591,2.179076,2.17781067],[1.0,-1.0,1.0,1.0,1.0,-1.0,1.0,1.0],[0.9999094,0.983359039,0.7596935,-0.999998,0.990560949,0.999881566,-0.999992847,-0.997771859],[0.999973953,0.9755088]],"biases":[[-3.18879437,-0.335238934,-0.1141302,-1.29707325,0.07306434,-0.3490535,1.8778075,-1.3561064],[-1.46588326,1.05556452,0.9751377,0.6739955,-0.05422841,-3.49718618,-1.42010665,-1.11069083],[2.63148475,-0.9973039,-2.32635856,-0.5259523,-0.07550459,0.846048236,-0.256518871,-1.50561929],[-0.460637033,1.05921614]],"weights":[[[0.6751762,1.32318306,2.769552,1.42637312,2.9023428,0.404799819,0.0921981,-1.57777238],[0.268301964,-1.6368978,0.07317089,-2.61744547,0.7276287,1.65300941,1.16026592,2.36994934],[1.74948478,0.04515238,0.9995003,2.32487059,0.0156168938,1.13006771,0.540973961,0.663345337],[1.42077518,0.513374031,0.4536845,-0.230193123,0.500098348,-0.922078967,-1.81647193,-1.91407442],[1.65603864,-0.826941967,0.0122747943,-1.40695262,-0.297608137,1.02155864,3.24027514,1.46283948],[-0.6159731,0.253843337,-1.83420777,-1.63832533,1.331879,2.03094435,1.85726631,0.257522285],[-1.3146435,-0.7068075,1.7944845,0.790444732,3.04093218,-1.90839362,3.97362947,0.615451336],[0.341775954,2.14684153,2.27966237,2.109189,0.8692522,2.97824454,0.318571359,-1.3364805]],[[-1.5140624,1.13183272,1.38473809,1.14393365,0.291439116,0.290857971,0.861639857,1.62453866],[1.687673,-0.200219169,0.03820634,0.352476418,-0.230726957,2.441316,0.938120246,2.84299231],[-0.5614072,0.461795866,2.69522,2.28883338,-1.91861618,-0.66795224,0.478634447,0.1330277],[1.833705,0.7068877,0.8908847,-1.47872233,-1.122661,2.866749,-2.88531446,-0.03780894],[1.41653657,-1.28334117,-0.5156167,-1.52019012,0.994044363,-2.534916,-0.8385475,-0.6033211],[0.1974257,-1.51149654,3.216118,-0.212689415,1.87475848,2.145208,0.481388271,-0.9022095],[-1.43264055,0.1790718,-0.012668699,-2.08322167,-0.7873579,1.63476384,0.06720674,0.04787845],[1.04543662,1.04854715,-0.819828033,0.0819685,-0.1105618,1.26813471,-0.0933845863,0.3193547]],[[-0.487571836,1.51005554,0.5573797,-2.12611914,2.93492937,-0.4059847,-0.7285495,0.6936648],[0.5513059,0.045706585,0.321891665,-0.304099441,-1.17719662,-0.4900956,-1.09603667,-0.5524027]]]}
