{"layers":[8,8,8,2],"neurons":[[2.45659471,2.48616719,2.866404,0.5909521,0.489420474,0.465584666,0.5016604,0.625589132],[0.9126525,0.0319363922,0.291087061,0.9939321,0.9508125,0.7471951,0.5625542,0.3262674],[-0.607488453,0.9493727,0.671735466,-0.391404629,-0.0390484,-0.0486377254,0.146515384,-0.06487263],[0.0820597261,0.7163387]],"biases":[[0.140248284,-0.2845986,-0.454832435,-0.171020687,-0.351541519,0.477838755,-0.458922863,-0.489568],[0.216921076,-0.102779686,-0.471363783,0.198787555,0.12333864,0.0159030557,0.0287918448,0.3124528],[0.123211682,0.493983984,-0.244186223,-0.481585622,-0.0406566262,0.392409921,0.225550041,0.241608962],[0.451437831,-0.0221623778]],"weights":[[[0.494969,0.3421607,-0.3828107,0.301224828,-0.2356953,0.393816948,0.281991243,-0.04881233],[-0.172439992,0.383446932,-0.3442105,0.09104067,0.4491682,0.433038116,0.326252341,-0.07551485],[0.4228468,-0.393385768,0.3484211,-0.04346472,-0.06811339,-0.155394256,-0.197056949,-0.09289199],[0.455914021,0.369518042,0.236042961,0.3134197,0.2536689,-0.0839602351,-0.1504075,-0.338009357],[0.4894383,0.430152416,-0.188196242,-0.0791057944,-0.301218867,-0.267896533,0.451375484,0.123033583],[-0.0117055774,0.04693824,0.330804,0.436054,-0.4330089,-0.36468935,-0.4370873,0.412112],[0.141272292,0.4622314,-0.133174121,-0.4767598,-0.248845279,-0.136281669,-0.310531378,0.185476169],[-0.319189072,0.179610476,0.189267024,-0.384625316,-0.302048326,-0.3609177,0.1857426,0.4335673]],[[0.104165733,0.178923354,-0.105081618,-0.09456533,-0.291552424,-0.428916216,-0.38144362,0.0243168473],[0.4610921,-0.446194768,-0.113599837,0.487202048,0.176485047,0.26758182,-0.06373507,0.4345237],[0.4930098,0.43218708,0.3960408,-0.2383278,0.47545743,0.201513276,0.220507249,-0.032956183],[-0.0865882039,0.346172452,0.432471275,-0.395617366,-0.0536116958,0.304620743,0.150379285,0.435821652],[0.3187536,0.330190063,0.4629345,-0.323147058,-0.381389976,0.381042838,-0.00773841143,-0.09552187],[-0.371514082,0.495770931,-0.01833862,-0.160428822,0.291883,-0.178096,0.09924787,-0.470008016],[0.306676865,0.4244641,0.11131531,-0.4261185,0.1542344,-0.198690832,-0.1904158,0.394292],[0.187159523,0.360821724,0.289542437,-0.152164161,-0.358200669,-0.349975824,0.3274505,-0.01249212]],[[0.384113073,-0.379521251,0.367579937,0.08330339,0.17052637,-0.0137985349,0.06579286,-0.10011977],[0.0418217778,0.4825344,0.492644668,-0.458130479,-0.134193838,0.367528319,0.04185921,0.218754277]]]}
