{"layers":[8,8,8,2],"neurons":[[4.210044,9.434712,8.047407,6.27276039,5.33119345,3.548864,2.92398858,2.77033925],[-0.99999994,1.0,1.0,-0.9027337,1.0,0.999726057,0.9948735,-1.0],[0.978417,0.993787,0.6810684,-0.8606953,-0.184485972,0.991465032,-0.8973104,0.6946968],[0.886755466,0.506045759]],"biases":[[-0.3726179,1.17502654,0.21019657,0.385687053,-0.27278614,0.00400842,-0.505134046,-0.74216],[0.237444341,-0.249104738,-0.191642538,0.668922544,-0.814864755,0.391157627,0.6763458,-1.04991508],[0.818594933,0.387077451,0.910380542,-0.6327424,-0.0414498,0.7459295,-0.0927806944,-0.2898808],[0.05437185,-0.0172418058]],"weights":[[[-1.01811,-0.29461,-0.137026519,-0.294119418,0.4161988,0.279802054,-0.298643827,-0.567302465],[0.2854361,0.519102335,0.273510337,1.14254367,-0.449489117,0.600568831,-0.129948571,0.260212123],[-0.00761933625,1.01775253,-0.186568677,0.520824,-0.214713484,0.8143368,-0.3968889,-0.133512691],[0.4356291,0.865180969,-1.08773732,0.1264417,-0.462920785,-0.25374794,0.155467987,-0.461421251],[0.07435508,0.38219434,0.276007473,0.555270433,1.12191093,0.6008152,-0.02453313,0.913783669],[0.4945324,0.249087,0.403254449,0.525363863,-0.542188168,-0.254423022,-0.5395769,-0.55764854],[-0.112425461,-0.581859946,0.360582948,0.40663743,0.022531271,0.3060568,0.186402738,0.384356767],[-0.100570172,0.073694855,-0.241240278,-0.201082543,-0.3616126,-0.338260174,-0.534147143,-0.5354316]],[[0.6629436,-0.416497529,-0.309073269,-0.343578368,0.3389551,1.16130257,-0.09051253,-1.1089412],[-0.149147287,0.8447561,0.365324825,0.300638735,0.102472112,-0.3264085,1.08872128,-0.5513694],[-0.4104581,0.414693117,-1.02676368,0.263080359,-0.5228047,0.627190769,0.243976027,-0.0128879249],[-0.0244042724,0.07592012,0.557715952,0.15005061,0.0214754343,-0.7118445,0.6528991,1.14524114],[0.5577167,0.304765165,0.413048416,-0.308618337,0.07981699,-0.663196564,0.4757542,0.4739874],[0.496911168,0.939251959,-0.65846163,-0.862849355,0.328752518,0.739985347,0.283877552,-0.06653691],[0.5183195,0.0271120667,-0.00113557279,0.160575181,-0.182837367,-0.7318618,0.4932686,0.304401428],[0.0125273615,1.00328243,0.5804198,-0.275536656,-0.589505553,-0.7786436,0.4789585,-0.2183793]],[[0.5437311,0.303319633,0.364750057,0.4220966,-1.42215741,0.316668153,-0.329122722,-0.342670649],[0.374159515,-0.32337153,-0.318088353,-0.49674356,0.167190611,0.3963372,0.02846989,-0.02526085]]]}
