{"layers":[8,8,8,2],"neurons":[[2.78134274,2.99550939,0.74755,0.5657972,0.50404346,0.509892,0.5875808,0.808202147],[-0.8264665,0.7764336,0.13067846,-0.3977735,0.5458845,-0.9250358,-0.9261481,0.358749866],[0.6133997,0.223071262,-0.2918798,-0.297891676,0.665144742,-0.394495249,-0.3103748,0.600878358],[-0.123118475,0.7153686]],"biases":[[0.09224051,-0.309012651,0.3835764,0.210171208,0.483087659,0.473296762,-0.105329216,-0.300256968],[-0.147647917,-0.369481444,0.310303569,-0.435189962,0.1817659,0.1754397,-0.251716971,-0.212617815],[0.450916052,-0.267242551,-0.430775523,0.3352728,0.370515823,0.144536123,0.132489309,-0.350769043],[-0.4999677,0.246870145]],"weights":[[[0.155203089,-0.4960854,-0.340092778,0.347163677,-0.1592763,0.204893336,-0.05989772,0.116227329],[-0.238120258,0.3181579,0.47868824,0.262836337,0.289664149,0.223922,-0.0151405931,0.441992521],[-0.177081048,0.005218804,0.196152434,0.178132042,-0.267235875,0.4795221,-0.337855816,0.172367558],[0.497132659,-0.3329897,-0.0544862151,-0.0794273,-0.235863388,-0.3948096,0.372159243,-0.227468789],[0.404223919,-0.305151343,0.06937152,0.319246769,0.282319069,0.2667172,-0.34891212,-0.1054675],[-0.286111,-0.2936381,0.447872519,-0.2291488,0.120925486,-0.4737662,-0.0275889039,-0.162388265],[0.04049784,-0.38954103,-0.058701098,0.0444967151,-0.293667674,-0.192208827,0.156576142,-0.187977612],[0.117277443,-0.0555436,0.429986954,-0.210311,0.4355532,-0.3082528,0.19351469,0.06155604]],[[-0.09774274,0.0219054818,0.4517976,-0.289804459,0.07862514,0.136737451,-0.182656586,-0.2627697],[0.08683008,0.325517416,-0.1260485,0.2655406,0.0757649541,-0.2786585,-0.257821321,-0.286171436],[-0.480552673,-0.032237947,-0.3753022,-0.326851249,-0.455632567,0.434892416,-0.420316339,-0.170605481],[0.229274258,0.0480204225,0.0202388167,0.07451159,-0.312294364,0.214979753,-0.0427026153,-0.372094035],[0.160242066,0.381258368,0.011321485,-0.256911039,-0.205977023,-0.03515917,-0.182761371,0.208673939],[0.0580709577,0.245865092,-0.158721864,0.0778918862,-0.15004319,0.493849039,0.0377548337,-0.220564187],[0.04221624,0.121851861,0.1525129,0.3839444,-0.3780948,-0.322377443,0.3172375,-0.497231841],[-0.263909459,0.423947573,-0.159861624,0.2906307,-0.3168261,-0.405897975,-0.290724635,0.4536091]],[[0.231068715,-0.460552454,-0.270799518,0.12235719,0.0328640342,-0.2290613,-0.439153433,0.07672626],[0.4336753,0.09015113,0.09825605,0.256649256,0.2031226,-0.317018628,0.2899865,0.499379873]]]}
