{"layers":[8,8,8,2],"neurons":[[3.973475,1.8255384,1.28563178,0.9779679,0.5456334,0.412901849,0.367792964,0.3720219],[-0.9182079,0.0620051958,0.6626972,0.9473956,-0.8865314,0.871012,-0.989003956,-0.9816301],[0.6445476,0.4177301,-0.2917656,0.6964508,-0.853311062,-0.033898145,-0.6207083,0.5195489],[0.274274737,0.7527984]],"biases":[[0.297104955,0.0345761627,0.286666423,-0.4766329,-0.340100348,0.307109237,-0.138020545,-0.211103618],[-0.431090325,0.059561938,-0.0376777649,0.315410167,0.04071246,0.4320137,-0.0192210972,0.12157245],[0.134335518,0.435593665,-0.4114029,0.633578658,0.10075663,0.329444081,-0.379523456,0.330706775],[0.298987031,0.401946068]],"weights":[[[-0.292756647,-0.04053852,0.6620707,-0.457350254,-0.5318294,-0.401779175,0.208712563,0.178172737],[0.274362147,-0.3479256,0.2918132,-0.3590316,-0.233566627,-0.141787544,-0.4777472,-0.308695436],[0.185061678,0.07303787,-0.3002079,0.211330235,0.32658127,0.128485128,-0.1466956,-0.0843907446],[0.5362537,-0.249838918,-0.151106119,-0.272359639,0.0239900649,0.2267,0.3522742,0.107470825],[-0.4450379,-0.011122793,0.293422043,-0.475460768,0.16263409,0.406190753,0.205706313,0.26368016],[0.251291454,-0.111595884,-0.07360853,0.176317081,0.250000954,0.136471167,-0.4541245,0.0186360478],[-0.212473914,-0.4365893,-0.5731958,-0.449087739,0.187052771,0.377145231,0.331190765,-0.381477416],[-0.58916074,-0.1670785,0.202154666,0.09176914,-0.08821668,-0.317640364,-0.166513458,0.201218814]],[[-0.5536946,0.031722337,0.416898727,0.08433528,0.08172694,-0.346177876,-0.082132116,-0.05885966],[0.569391549,-0.364020646,-0.0390191823,0.338722169,0.0339186341,-0.0738313347,-0.189289033,-0.169983372],[0.171889082,0.0183030367,-0.45658806,0.316894144,0.2872309,-0.04274966,-0.204409465,-0.3664021],[-0.217077434,0.333295554,0.204439655,-0.5635542,-0.350522041,0.31784448,-0.0226036161,0.208545834],[-0.023734346,-0.206191838,-0.4831286,-0.0205242783,0.437998742,-0.100840256,0.4661479,0.1030985],[-0.356638849,-0.06425783,-0.076545164,0.4820019,0.5569124,-0.5465412,0.5947524,-0.4739229],[0.259189844,-0.317806184,0.425284982,-0.0984897,0.0840199441,-0.215852216,-0.0489318073,0.06454697],[0.402244925,-0.196559563,-0.0181000829,-0.428593874,0.0478214622,0.538255155,-0.191488683,-0.436799347]],[[0.150052652,0.420695841,0.312943667,0.15842849,-0.138183773,-0.3414694,0.528730333,-0.2122862],[0.32779938,0.0338170677,-0.09229915,-0.436268747,-0.236776218,-0.6076883,-0.306650817,0.4156559]]]}
