{"layers":[8,8,8,2],"neurons":[[5.54249859,13.0269356,5.977215,2.530622,0.856685758,0.555980146,0.451870173,0.423639953],[-0.999999166,0.9978026,0.9489503,0.9998102,0.99999994,0.628255844,1.0,-0.9999989],[0.5316572,-0.196756124,0.246320054,0.7393039,0.03449844,-0.7799737,0.5064684,0.62263304],[0.6230545,0.24706246]],"biases":[[0.3354189,0.05194761,0.1910562,-0.0396903,-0.3650599,0.320781648,0.562549651,-0.35691762],[0.0316893,0.174340308,0.3302228,-0.558116555,0.345908135,-0.43978256,0.4371519,0.235221013],[0.333413,-0.6050032,0.39243,0.196758017,-0.0814282,-0.308307946,0.496001124,0.383361131],[0.107946783,0.436195076]],"weights":[[[-0.0243190825,-0.5733865,0.103539631,-0.5526299,0.5257377,0.483654469,0.291386247,0.408290118],[0.0511302352,0.350644439,-0.4559396,0.225435361,0.2638141,0.255526721,0.6203451,-0.2665519],[0.5210616,-0.159465849,0.00243105,0.3037566,-0.280631572,-0.116664842,-0.1303059,0.6165666],[0.0240847319,0.32596904,0.22126995,-0.1910776,0.5470754,-0.575792849,-0.205120385,-0.201279581],[0.386813164,0.3724345,0.102024779,0.184198365,0.3709336,0.5505612,-0.570490241,0.406818122],[0.0481646657,0.0492976,0.08267704,-0.142257765,0.292143464,0.1807049,-0.262254059,-0.229567274],[0.4152038,0.6186811,-0.3606557,0.217641339,0.190116435,-0.0800913,0.04975906,-0.498413384],[-0.468434751,-0.216280982,-0.3661015,0.09867838,-0.007297054,-0.377061218,0.25092113,0.0259514451]],[[-0.41587323,-0.4585864,0.453618467,0.1224709,-0.196292117,-0.217669323,-0.101845548,-0.1827262],[-0.182810768,-0.13263984,0.02421368,-0.0245616734,0.120798185,0.147281364,0.485130727,0.34169507],[0.453882158,0.173650488,-0.0512194037,-0.0844212,0.06219752,0.2733448,0.09898585,0.0602298379],[-0.594836533,0.117516592,0.123356186,0.2409748,-0.331366479,0.45295167,-0.213608637,0.0574924722],[0.352889776,0.215615854,-0.292192638,-0.309195429,0.549623966,0.436510146,0.253596336,0.237359747],[0.453951359,0.0157821774,-0.249546289,0.188370571,0.233872443,0.189617023,-0.346875548,0.256445],[-0.496492922,-0.360534966,-0.3788653,0.06611583,0.244002476,0.1390814,0.0531168878,0.1658598],[0.251895219,-0.380466878,0.4924407,0.0905129462,-0.210877657,-0.324152231,0.356683224,-0.47750634]],[[0.4087038,-0.1648587,-0.4103806,0.420832,0.20425792,0.148919374,-0.0561261028,0.481508642],[-0.131360158,0.0302208364,0.3666441,0.09285791,-0.249813557,0.475630045,0.3014261,-0.06449416]]]}
