{"layers":[8,8,8,2],"neurons":[[2.82245541,2.7336905,0.496735483,0.295831829,0.2304284,0.2093913,0.215715915,0.2540279],[0.9718169,0.9521936,0.9345347,-0.306949079,-0.7335148,-0.715361953,-0.9924963,0.8635232],[-0.588743031,-0.682361841,-0.922948062,0.769422054,0.658884943,-0.3948381,-0.768738031,0.583771],[0.758704364,0.0854183]],"biases":[[0.3032583,-0.179130733,-0.3064077,-0.213672459,0.146605715,-0.339806557,0.08949572,0.252619982],[-0.0342978835,0.4716065,0.0942437053,-0.0596304536,-0.3744322,-0.324098349,-0.373533,-0.409615755],[0.3504126,-0.21602124,-0.410393357,-0.0289999843,0.3292725,0.318811536,-0.428563952,0.217072114],[0.292112,0.450621843]],"weights":[[[0.379892,0.388692021,-0.3388331,0.4514532,-0.262225747,0.297765732,0.0217146277,0.203312263],[-0.007755935,0.499952435,0.125106439,-0.46507585,-0.230171978,0.390398622,0.08815986,0.260043383],[0.0272439122,0.4927857,0.244790539,0.300163269,-0.4026544,0.076184094,-0.08492869,0.2344098],[-0.119017541,-0.02035147,-0.178890169,0.240306,0.158341512,0.389069557,-0.0998491645,0.217964157],[0.0124053359,-0.13320893,-0.444870472,0.159865722,-0.196246326,-0.2680812,0.376453757,-0.153077185],[-0.1360566,-0.06296784,-0.06377703,0.379386783,-0.253717422,0.391070366,-0.1880179,-0.319857955],[-0.373465776,-0.406135321,-0.08172935,-0.427701235,0.0611844659,0.267856,-0.460430622,-0.223356664],[0.222187027,0.396892667,0.126065,-0.4039768,-0.4646592,-0.0291511416,0.3636315,0.378610253]],[[-0.346300244,-0.05270475,-0.006257713,0.444974065,0.0332846045,0.135976419,0.144163355,-0.268928528],[0.416046858,-0.232760489,0.305049777,-0.472056627,0.30136466,0.465736151,0.463249326,-0.250330329],[-0.16024977,-0.476127028,-0.2235573,0.119502366,-0.066085875,-0.411535621,0.377881169,-0.360498428],[0.4325019,0.0266903043,0.4561653,0.413201928,-0.356367,0.4783393,-0.364326,0.025367558],[-0.0478541255,0.336733937,-0.4759432,-0.457527518,0.162090287,-0.368473053,-0.303331137,0.0533099771],[0.177695736,-0.4114319,0.406680584,0.448812127,-0.0453308225,0.353989244,0.461702824,-0.09418613],[0.0290326476,0.205593571,0.0149590373,-0.09324473,0.206145272,0.183153257,0.272947669,-0.349869847],[0.46582222,-0.0190860629,-0.08656746,0.0574172139,-0.450070143,0.195627913,0.490602732,0.476917624]],[[0.3094145,-0.0217446685,-0.457413077,-0.356862664,0.47865212,-0.244554579,-0.4908626,-0.117341459],[0.442786455,0.3270098,-0.22699362,0.341976523,-0.494205,0.2653805,0.178077921,0.365735531]]]}
