{"layers":[8,8,8,2],"neurons":[[0.407436,0.399478674,1.1003325,2.15518975,8.437071,7.797818,6.0389905,4.75872946],[-0.996497154,0.9998397,-0.999747753,-0.8724195,-0.9999971,0.5207499,0.999992847,0.772406936],[-0.019736886,0.155992791,-0.3521099,-0.5060075,0.0954152942,0.0120756123,0.9629743,-0.275441021],[0.3263388,0.222466812]],"biases":[[-0.1307518,0.350527048,-0.4267661,0.0208732411,0.433853745,0.08162491,-0.004452765,-0.367883325],[0.1658412,-0.0370230228,0.07770108,-0.3345746,0.139235884,0.563025355,0.219850257,0.2910994],[0.336499125,0.0550615937,-0.5161161,-0.2842403,0.0104291439,0.160991669,0.236759052,0.3799332],[0.274334818,0.21164836]],"weights":[[[-0.00709617138,0.4960422,0.0411760136,0.375248551,-0.273386985,-0.218256563,-0.09121245,0.03601999],[-0.07644191,0.373361677,-0.154860184,-0.500207365,0.395244122,-0.166471079,0.40663594,0.292315364],[0.117845386,-0.293291718,0.074994415,0.0347353369,-0.361498952,-0.398274124,0.117310427,0.166470975],[-0.188939288,-0.382148951,-0.6113735,-0.0794442743,0.08256589,0.506269932,-0.370957017,-0.49155587],[0.641013741,0.441064924,0.136019289,-0.192006439,-0.5749825,-0.23172234,0.03088139,-0.116894439],[0.191654414,0.326352745,0.0568138435,-0.557732344,-0.4711845,0.128079712,0.6416998,0.009844154],[-0.493699521,0.6134449,0.08814527,-0.42719245,0.250851333,0.576203644,-0.237011358,0.347463],[0.145233542,-0.232395679,0.248208672,-0.279024035,0.2974906,-0.6233981,0.451307952,0.15189366]],[[0.501363337,0.113160715,-0.107467063,-0.1353044,0.02294752,-0.28281,0.34982717,-0.48531425],[0.6191705,0.3673068,-0.4414466,0.2839135,-0.199526161,0.4597972,-0.7371922,0.5910711],[-0.471279681,-0.367281854,0.3524788,-0.137232482,0.06779881,-0.2508519,0.024005428,0.586413741],[-0.08434497,-0.3320588,0.121953949,0.074373275,0.247475237,-0.05360174,-0.0912836343,0.683999956],[0.166064247,-0.327088982,-0.0610025674,0.3845151,-0.0581040755,-0.05972328,0.424185574,0.519262731],[0.274950922,-0.100574836,0.0844792,-0.3235017,0.09092493,0.190687731,0.1912437,-0.222367913],[-0.07196967,0.494362772,-0.25819248,-0.3374909,-0.385745347,-0.275786668,0.612070858,-0.290279955],[0.0676227957,0.424105465,0.45870173,0.113343447,0.209830627,0.179111376,-0.0818796754,-0.341039062]],[[-0.101528779,0.0566748381,-0.2266984,0.296167254,-0.6404127,0.550747335,0.247163013,0.2177285],[-0.231879771,-0.321395725,-0.454702139,-0.0254885256,0.346270442,0.361556649,-0.08263244,0.256587684]]]}
