{"layers":[8,8,8,2],"neurons":[[11.3249769,9.474106,7.6554,6.580619,4.25814724,3.26635242,2.93657064,2.995434],[-0.999916553,-0.9999218,0.9999998,-0.842137158,-0.999844253,-1.0,1.0,-0.999639153],[-0.991295,-0.9887948,-0.988581359,0.054135818,-0.4043895,0.926341355,0.941349,-0.82764715],[0.9921553,0.592832565]],"biases":[[0.8995798,-0.206313819,0.213667616,-0.266980916,0.5310252,-0.374426782,0.010423243,-0.807528853],[1.076024,0.124397248,0.473004043,0.3481977,-0.4618303,-0.301970661,-0.404324949,-0.178309783],[-0.196285367,-0.129556686,-0.9942421,-0.0619032681,-0.17531617,0.7893607,-0.193496853,-0.590801835],[0.314147651,0.3276223]],"weights":[[[-0.293373,-0.5086795,0.06271515,-0.52074796,0.528450847,0.147003978,-0.5865746,1.32282066],[-0.5176943,-0.198444128,-0.425376654,0.785019755,-0.291348875,0.9022331,-0.898880839,0.5233577],[0.430248559,0.23530975,0.7319931,0.213683277,-0.42254582,-0.493447,-0.8565234,-0.151660219],[-0.305612952,0.195632458,0.247366637,0.09156868,-1.14202058,0.135138065,-0.102284148,0.753320038],[0.260992229,-0.197847873,0.118868127,0.215834647,-1.19209647,-0.376539767,0.4304806,-0.880707741],[-0.374956578,-0.8112412,-0.978595436,0.447161317,-0.0633455142,0.309288561,0.897559762,0.7077606],[0.227195144,0.719924331,0.8541616,0.154080108,0.755043,-0.2765662,0.9583354,-0.456497729],[-0.0155322105,-0.246345788,-0.6144456,-0.0578780621,0.4742763,0.47604838,0.09831558,-0.133660987]],[[0.8476576,0.387201726,-0.44593358,-0.6544509,0.0319125354,0.806116641,0.278805256,0.831563],[1.25079226,-0.718408167,-0.3143866,0.1453881,0.9440378,0.6713974,0.196779341,0.07225485],[0.3824466,0.0261903554,0.06082353,1.17606175,0.0462667942,0.129619911,-0.06979199,0.0018658787],[-0.110269964,-0.6013431,-1.0648762,-0.252553135,0.315812826,-0.370185316,-0.107978776,-0.310395956],[0.245497286,-0.1701266,0.6039218,0.225741521,0.4217807,0.454562932,-0.0653450042,-0.349726915],[1.03540707,-0.320385039,0.356272459,-0.05793023,0.564456046,-0.386761785,1.498892,0.168836072],[-0.634941936,0.0282898843,0.2690981,0.770830154,-0.282438755,-1.17160559,0.6889863,0.426431239],[-0.480188727,0.905498266,-0.0906344,0.192980051,-0.507453859,0.440832853,-0.628599,-0.6509022]],[[-0.797365844,-0.8442661,-0.878324568,-0.027750209,0.177426949,-0.193292052,0.37442416,0.16826193],[0.276160359,-0.3049391,-0.11705377,0.155701473,0.507995248,0.326600015,-0.0236872286,-0.154257581]]]}
