{"layers":[8,8,8,2],"neurons":[[9.389298,6.736256,4.77784443,2.46219468,1.80506253,1.57472169,1.56378627,1.76433754],[-0.9999054,0.999488831,0.9999998,-0.999984145,1.0,1.0,-0.99999994,0.8722037],[0.9827146,0.9659624,0.9415255,-0.993982553,-0.9753242,0.9703105,0.999768,-0.758847356],[0.978969,-0.235898867]],"biases":[[-1.033798,0.13009581,0.105827168,0.2876451,-0.2801938,0.626637936,-0.128860891,0.739270449],[-0.0862125,-0.0516057163,0.09044275,0.401412725,0.416848958,0.5560951,-0.0969355851,0.5843646],[0.3249604,0.29545927,0.101949632,-1.16965854,-0.727125,0.0882467553,0.994092,1.03060126],[0.103189543,-0.267045259]],"weights":[[[-0.5529078,0.190775916,-0.176353142,-1.07405865,0.57967025,0.461283624,0.3966754,0.0606050044],[0.06839348,0.1869304,0.422323585,0.309251517,-0.232520342,0.5275599,0.313119948,-0.7900081],[-0.131458223,0.373908222,1.27748728,0.342794865,-0.1096409,-0.3298044,-0.09116654,0.3443191],[0.3795367,-0.7270324,-0.629426837,-0.07179242,-0.6824777,-0.7859536,-0.06662032,0.4633385],[0.632209837,1.23435307,-0.06266896,0.462597847,1.081039,0.232439369,-0.4921013,-0.40869844],[0.972300768,0.36260736,0.056932956,0.132682458,-0.837505341,0.2843469,-0.643701136,1.36166334],[-0.5602717,-1.06142938,0.6200572,-0.746979237,0.460983574,1.39874363,-0.86426264,0.5530691],[-0.0424961522,0.197156727,0.2141755,-0.130880862,-0.04884684,-0.541854739,0.376576364,-0.2945711]],[[-0.948020756,0.6601799,-0.09668586,0.196443409,0.4520551,-0.9669172,-0.8967109,0.400965273],[-0.35159108,0.222383186,0.124355927,0.18378517,0.2228138,-0.441580474,-0.9046527,0.610396266],[-0.216057912,-0.3974953,0.356781,-0.9311088,-0.0244500339,-0.111608639,-0.287033737,0.4491778],[1.01111042,-0.7328122,1.13149023,0.526260734,-0.6781258,-0.0370771,0.100882247,0.254921168],[0.3310535,0.3286733,-0.6593411,0.747817636,0.05760283,0.219439268,-0.202835932,-0.6127263],[0.190438181,0.672230661,0.0214733332,-0.421414673,0.9272913,-0.5385497,-0.5602245,0.155945241],[0.6366159,1.00092244,-0.388436258,-1.09323835,1.7108742,0.131621361,-0.441273749,0.2115341],[-0.301892,0.0126695633,0.14107731,0.403723955,-0.410402417,-0.159367129,0.5776711,-1.06458938]],[[0.263336718,0.7750335,0.488957882,0.810402334,-1.58414042,0.7778335,-1.06219709,-0.354298443],[0.146507621,-0.227931529,-0.381382227,0.440939,-1.11703491,-0.113589883,0.312487125,0.5158943]]]}
