{"layers":[8,8,8,2],"neurons":[[2.59875154,9.805999,8.793796,7.405594,6.801762,5.05271339,4.214642,4.032182],[-0.9999957,-1.0,0.8123654,0.99999994,-1.0,-0.925280452,-0.9996834,-0.999919832],[0.55403626,0.9450889,0.05201897,0.7723024,0.8821003,0.8795647,0.8737,0.285726726],[0.94414556,0.61998105]],"biases":[[1.54192281,0.477930725,-0.5452174,0.4077975,-0.0121131539,-0.5654294,-0.357337475,0.0460907072],[-0.00971007347,-0.56052953,1.40661442,0.246275559,-0.23254475,0.3577327,0.536822557,1.70209312],[0.328558266,0.356799483,1.06102014,-0.3017477,0.146373063,0.264248878,-0.206115454,0.4387993],[0.470014125,-0.327011079]],"weights":[[[0.0755355954,0.144204646,-0.9314347,-0.174166545,-0.129847422,-0.0593486577,0.8956152,-0.307366461],[-0.773394465,-0.2060003,-1.21736109,-0.340604126,-0.8195085,-0.463342279,0.296975732,0.059945032],[-0.370606184,-0.237220526,0.8352603,-0.201100543,0.433853626,-0.235099643,-0.521099567,-0.596709132],[1.06475687,0.8723562,0.00451135635,0.292761,-0.5868878,0.377420485,-0.513225138,-0.230282873],[-0.232894287,-0.8088223,-0.297008753,-0.195308581,-0.0803954154,-0.6690568,1.22298586,-0.959595442],[-0.219145522,0.150888965,0.501949,-0.248899922,-0.3376593,-0.374371529,-0.174231738,-0.134065941],[0.0385639966,0.511158645,-0.409950018,-0.839525,-0.342499733,-0.3306579,0.7201866,0.189061955],[-0.6081703,-0.6684739,-0.718523264,-0.744866,0.7342632,-0.1485512,0.99942714,1.177989]],[[-0.6742602,-1.05601943,0.0498868823,0.253069818,0.662358761,-0.0173489749,0.782788038,0.2994222],[0.5381634,-0.9590496,0.09766773,0.669154167,-0.450419724,1.01624656,-1.05991793,0.312223881],[0.659695,0.244284108,-0.130363718,0.411202222,-0.014385581,0.5367669,-0.5593012,0.487165838],[-1.2351675,0.559190631,-0.09206271,-0.1464199,-0.4384094,0.687023163,0.157530621,-1.22785151],[0.06856115,-0.08133887,0.346021771,-0.41199097,-0.7947309,-0.333948553,-0.853125036,0.599731565],[-0.104535,1.35132563,0.3186531,-0.124503553,-0.55592525,-0.216448575,-0.7380802,-0.72803545],[0.6362664,-0.0663398653,0.232715636,0.5851513,-0.9393685,-0.3789314,0.024443,-0.08479887],[-0.01980555,-0.378850579,-0.366968274,0.487968028,0.8330678,-0.823631,-0.0264729112,0.6889458]],[[0.699832,-0.306185782,-0.219761491,0.9318588,0.258678168,0.720404,-0.174658984,-0.7382104],[-0.144951224,0.2865523,0.157240584,1.05960941,0.585832357,-0.09135334,-0.619472,0.4892046]]]}
