{"layers":[8,8,8,2],"neurons":[[1.111028,1.12145615,1.28903139,1.76589632,9.814772,8.774166,5.79755,4.30813026],[-1.0,-0.9993335,-0.999774635,-0.992687762,0.999869645,-0.95476073,-0.9990321,0.814033747],[-0.9565305,-0.6263916,0.3278887,0.0280677136,0.226323515,-0.54901576,0.392939121,0.953968942],[-0.150719687,0.07846216]],"biases":[[-0.111127779,-0.587456,-0.5150122,-0.258378148,-0.286899269,0.16033943,0.260848552,0.513509333],[-0.40780136,-0.419064164,-0.288094163,0.0151311755,0.252337873,0.45547092,0.3955946,0.289362252],[-0.5170801,-0.242654264,0.45702523,0.04317589,0.278592,-0.0810498,-0.325662017,0.397380769],[-0.09535888,-0.5892545]],"weights":[[[0.45087868,-0.462987959,0.346141517,-0.0544737279,-0.3650062,-0.301986516,-0.527205169,-0.458414644],[0.5390602,-0.0471647233,-0.436693162,-0.20306924,0.530209064,-0.385892957,-0.7283074,-0.186664864],[-0.6322137,0.6139861,0.0555138439,-0.06188935,-0.6119224,-0.256425261,0.7637573,-0.0877231956],[0.3078798,-0.465032578,-0.359369159,-0.241338462,0.321630418,-0.6304692,0.171762154,-0.08606875],[0.172092125,0.3072366,0.298353344,-0.5898146,-0.0886280239,0.317185819,0.4213813,0.07705481],[-0.138430387,-0.3177082,-0.238161042,0.0359623879,-0.0389786735,-0.008833565,0.1342674,-0.4417835],[0.27617687,0.435952246,0.142606661,0.3074857,-0.30963695,-0.406646669,0.3462653,-0.263490468],[0.356747627,-0.7498349,0.5139823,-0.267387033,-0.0612872243,-0.0446912348,0.3645612,-0.00376392156]],[[0.133495122,-0.07941046,0.276835471,0.5486648,-0.354249716,0.194132447,-0.220900953,-0.235769212],[-0.14365986,-0.22534211,0.451852143,0.448670655,-0.07590085,-0.208256736,-0.0793583542,-0.2048302],[-0.707981,-0.112689286,0.128330559,-0.135956809,-0.185990259,0.507518649,0.277525961,0.004866615],[0.06611247,0.217200592,-0.121847034,0.257313848,-0.6336745,-0.462913126,-0.07904867,0.631827235],[0.1718091,-0.260509461,0.175308183,-0.5702544,0.218453124,0.631786048,-0.3203717,-0.5686561],[-0.115540281,-0.468002677,0.0131345689,-0.198594987,-0.188218951,0.4397986,0.5076846,-0.230793566],[-0.5014495,0.137714326,-0.184771582,0.376756281,0.488293946,0.911772132,-0.751609,0.2429751],[-0.0435530841,-0.5956933,-0.263223648,-0.127654985,-0.0831759,-0.141770244,-0.22438623,0.2108928]],[[0.0136737674,0.445907027,-0.2769266,-0.234928757,0.08331011,-0.385484844,-0.4433189,0.290338516],[-0.443492383,-0.017589137,0.114933431,-0.6545185,0.6048589,-0.138337731,-0.730811954,0.3015331]]]}
