{"layers":[8,8,8,2],"neurons":[[2.67428064,10.2934713,8.564794,7.38775635,6.31838226,5.44060659,4.145127,3.709293],[-0.999976039,0.908296,-1.0,0.261905819,0.932134449,0.9988512,0.99999994,0.9999692],[-0.661334932,0.913059652,0.9708671,0.346577734,0.1430574,-0.7035766,-0.5386995,-0.9249018],[0.6900241,-0.123439558]],"biases":[[0.26802814,0.0133723319,-0.5064093,-0.165485337,-0.168420166,-0.7102261,0.05676517,0.872575343],[-0.09416543,0.197002724,0.33993715,0.4312735,0.08984614,0.14791885,-0.229938954,0.145480752],[-0.46933642,-0.335667044,0.07441661,0.132911682,0.665713251,-0.08526839,0.113117933,0.3085578],[-0.400504529,0.454441428]],"weights":[[[0.114058495,-0.428415418,0.100200705,-0.555435061,-0.265382051,0.292842239,-0.263305843,0.79621774],[0.331725121,0.159688964,0.16352658,0.0107882917,0.05584818,-0.594171643,0.636488,-0.6602323],[-0.3650772,-0.585616469,-0.343713075,-0.5245036,-0.328786254,-0.571122169,-0.289276838,0.418260932],[-0.6241324,0.411396384,-0.115475371,0.182893053,-0.211494967,-0.07734731,0.109805711,-0.482273757],[0.172845215,-0.11057815,0.466414958,0.282325625,-0.0935734138,-0.161416337,-0.137891442,-0.4795823],[0.468814522,0.362152964,0.169127539,-0.8124638,0.529530466,-0.24015896,-0.0101580769,0.3121915],[-0.5926896,0.8597564,0.64248836,0.07678367,-0.278453052,0.214060426,-0.6164772,-0.3154074],[0.0540121421,-0.195161834,0.09845185,0.5099815,0.0987041444,0.113728225,-0.188658059,0.5899781]],[[-0.319940239,-0.0917613357,0.653292537,0.0782563537,0.150349334,0.003157258,-0.438007355,0.365083635],[-0.8250074,-0.6236155,-0.694567263,-0.483028,-0.008957498,0.3917346,0.203945875,0.467799455],[-0.20689328,0.480827838,-0.400078177,0.68399334,0.7872842,0.0868431553,0.033820197,-0.0444981754],[-0.6793993,-0.642742336,-0.03344263,0.990107656,-0.6910845,-0.2219231,0.06080894,0.645359755],[0.0309008211,0.0398934335,0.123321488,-0.32845974,-0.0108024478,-0.251763433,-0.180278435,0.124170065],[0.311333835,0.009358734,-0.240855664,-0.273413748,0.09381613,-0.158992335,-0.397720069,-0.186426267],[-0.106658116,-0.643756568,0.235611841,0.442914784,-0.276086062,0.157379791,-0.218208522,0.200601324],[0.190656379,-0.211583987,-0.211896941,0.1357785,-0.5638656,-0.5116835,-0.7965234,0.038118653]],[[0.145293832,0.3369847,0.331148148,-0.3845901,0.2828844,-0.0359852761,-0.458635032,-0.5793512],[0.159688413,0.6000847,-0.4843403,-0.3470788,0.11487624,0.6394857,0.8505903,-0.498870671]]]}
