{"layers":[8,8,8,2],"neurons":[[3.60031819,9.897846,8.479197,6.70943832,5.898361,4.19128036,3.31092024,3.03912926],[1.0,0.964829266,-1.0,0.9962975,-1.0,0.9983554,-1.0,-1.0],[-0.8083566,0.9954842,0.9576997,0.0907349139,0.911634266,-0.1963072,0.997745156,0.5193321],[0.9795322,0.701164365]],"biases":[[-0.380929053,0.236362129,0.909041166,-0.375124365,0.4652804,0.623579,0.1982615,0.333228767],[0.39234376,-0.2687655,-0.412517846,-0.9818456,-0.7231649,-0.9997887,-0.4613508,-0.399240851],[0.8843065,0.424028754,0.555929363,-0.264357716,0.141652882,-0.216432676,1.13731587,-0.430639356],[0.63452667,0.414465666]],"weights":[[[0.422599316,0.8964523,0.02627045,0.0914507657,0.167371,-0.169323653,0.3579189,0.922998846],[-0.883455932,-0.181666136,-0.236223578,-0.478348553,0.105785057,1.98375666,1.282178,-0.234319583],[-1.07559,0.216065079,-0.108261853,-0.676304,-0.7701179,-0.25965184,-0.389009356,-0.07595275],[-0.30203402,0.40189898,0.573457837,0.722966433,-0.6009171,-0.553908646,0.0140621364,-0.8743804],[0.888186,0.0686977357,0.006227404,-1.26089,-0.6513441,0.9275604,-1.0944587,-0.293059826],[0.3708659,0.7117042,0.355955,-0.3958373,0.06794723,-0.662044644,-0.6970074,0.161530808],[0.0960234553,-0.868808866,-0.131991208,0.106681421,0.09766695,-0.514152,-0.5118597,-0.7570053],[-0.43978,-0.76726073,-0.226640344,-0.16067256,-1.4445107,0.178240716,0.7720013,0.391998649]],[[-0.246574759,-0.0541537553,-0.2787667,-1.06264377,-0.217268065,0.3211646,0.1716314,1.29408181],[-0.08564867,1.32597208,0.008939691,-0.5251404,-0.5740215,0.30339995,-0.53897655,-0.544044137],[-0.375812918,0.7555673,0.07995714,1.58580244,-0.009219758,-0.237896681,0.756221652,-0.492789656],[-0.899439931,-0.912602663,0.527354538,0.400583744,-0.0343181342,0.8023498,-0.5679023,-0.860291958],[0.891909659,0.312261283,0.563699841,0.864284754,-0.817221344,-0.1628591,0.935696244,-0.185954675],[-0.203084618,-0.2960032,-1.65330875,0.17343235,0.9733633,0.738376737,0.4860024,0.5976746],[0.6626049,0.959703565,-0.2808809,0.230282515,-0.0119785368,-0.340416074,0.09730923,-0.582348347],[0.7879773,0.6091206,-0.101055086,0.07461928,-0.250573158,-0.7852928,-0.0398413539,0.051421836]],[[-0.8853262,0.0988867953,0.5023552,0.4573562,0.203214824,0.765405655,0.112196162,0.322923124],[-0.468602538,-1.01414549,0.559035659,-1.0097307,0.709001243,-0.359954476,0.433808416,-0.977645636]]]}
