{"layers":[8,8,8,2],"neurons":[[3.758967,9.1656065,8.00834751,6.44159365,5.72059059,3.99601054,3.384,3.27735281],[0.880085051,0.6366133,-0.9561974,-0.9722095,-0.9925194,-1.0,0.9999593,0.998344958],[0.490118444,0.6680088,-0.873862863,-0.924770534,-0.157425508,-0.5312702,-0.227760583,0.240158826],[0.645409346,0.819059432]],"biases":[[-0.141969353,-0.386279166,0.182629317,0.0464114547,0.289545119,0.0714379847,-0.30180335,0.4875558],[0.577433348,0.2597692,-0.168027759,-0.02936992,-0.141839385,0.71028316,-0.0343778,0.0821884647],[0.0507468134,0.6404175,0.139729246,-0.8216419,0.06710356,-0.5202312,-0.624410748,-0.160037264],[0.169732809,0.584422]],"weights":[[[-0.7274972,0.129237473,-0.180063173,-0.04387804,0.00410084426,0.504043162,0.464910179,0.141146123],[0.475774646,0.154142857,0.017377153,-0.409958631,0.112409338,-0.120336644,-0.309614748,0.207068011],[-0.23774679,-0.07585813,0.3880729,0.128885388,-0.4559567,0.193547413,-0.212380111,-0.465915024],[0.152031332,-0.0364773721,-0.438667774,0.012553677,0.07767312,0.2960608,0.341295362,-0.5153808],[-0.6227881,0.126455382,-0.0845658854,-0.361506343,-0.100570619,0.438032985,-0.01737535,0.128477216],[-0.388651967,-0.52167356,-0.5191442,0.4844499,-0.347879171,-0.6320682,-0.187702537,-0.4170537],[0.728338,-0.0240557343,0.7932839,0.7953068,-0.6327962,-0.639263034,-0.5515215,-0.157680526],[0.221946537,0.179947868,-0.2707551,0.0283917487,0.3477791,0.09762305,-0.375882149,0.5675639]],[[0.3246491,-0.43607837,-0.0321151465,-0.0456516743,0.3121903,-0.321090519,-0.0951575339,0.486996472],[-0.117954284,0.107647,0.252049744,-0.35412246,-0.145042434,0.104578659,0.116211608,-0.0569503158],[-0.499575436,-0.177375257,-0.292919159,0.5917117,-0.524662,0.173168376,-0.4961524,-0.4934088],[-0.1659593,-0.576081336,0.4684654,0.1172248,-0.559135556,0.209557042,-0.00509901345,-0.06506044],[0.418964028,0.200546786,0.02247978,0.153383315,-0.6114148,0.625484049,-0.356883645,-0.176407948],[-0.2842903,-0.387248755,0.381844223,-0.171443343,-0.455519319,-0.23391366,-0.458039522,0.396136],[-0.109853245,0.5585172,-0.61789906,0.01587335,-0.1846231,0.0604912639,-0.48259306,-0.0820091143],[0.3311251,-0.438242048,-0.089728184,-0.07579161,-0.660654843,-0.132000372,-0.471663356,-0.0831373259]],[[-0.0290568322,0.168295726,-0.573879,0.2222715,-0.0201708,-0.124757066,-0.384208828,0.19391951],[0.428596854,-0.158248439,-0.6606316,0.286135256,-0.07132857,-0.4969187,0.174829125,-0.3452739]]]}
