{"layers":[8,8,8,2],"neurons":[[2.613396,2.59988332,2.939197,0.703821957,0.56973207,0.5325087,0.563667953,0.686670661],[-0.6730502,0.9176858,0.872830868,0.878011763,0.9296505,-0.785234332,0.9804182,0.8112372],[0.420053661,0.361693263,0.0349497,-0.478190422,-0.888391435,0.6700642,-0.300688237,0.5899799],[0.681791,-0.0424787626]],"biases":[[-0.215354756,0.00352364779,0.141758487,-0.304723024,-0.3436163,-0.5123978,0.510616839,-0.35332],[0.457101762,0.3091249,0.512352467,0.367128372,0.266970217,-0.4021405,-0.4474687,-0.00459091365],[0.127907917,0.0340926051,0.0513920933,-0.0481912643,-0.329436123,-0.189158767,0.305747747,-0.0375673026],[0.542913258,0.348133266]],"weights":[[[0.0699428,-0.156713158,-0.5447705,0.258090466,0.112016976,0.378710181,0.298015684,-0.0912847444],[-0.0369306356,0.119275585,0.2091644,-0.380726337,0.43943882,0.260548174,0.285944283,0.224789336],[0.305547446,-0.564937234,0.386951864,0.239190459,0.136715159,0.0464393348,0.09252903,0.06159407],[0.1355265,0.377005756,-0.0108609125,-0.180559933,0.0018466562,-0.5955267,0.563866138,-0.258085132],[0.500763655,0.3470434,-0.209551647,0.268505752,-0.184602082,-0.481570423,0.106730327,-0.136513814],[-0.335327864,-0.260494769,0.111115173,0.15275079,0.146557152,-0.002075702,0.290535748,0.315442175],[-0.00681014359,0.5211605,0.5761146,-0.1293806,0.307886422,-0.407202959,-0.1374742,-0.09436234],[-0.255155444,0.255342364,0.4520551,-0.5305338,-0.113418967,0.288788885,0.159420758,0.00566166639]],[[-0.105871484,-0.2512648,-0.440922439,0.3489799,-0.05652827,-0.192320958,0.5619942,-0.113207325],[-0.2841849,-0.2506525,0.256090581,-0.1330368,-0.07157249,-0.201893225,-0.0475841,0.285280228],[0.0251333416,0.231873438,-0.268395066,-0.162222818,0.114300549,-0.173610508,-0.239698768,0.193307772],[0.443127424,-0.322766244,-0.2516948,-0.133001551,0.402851939,-0.01108256,-0.224142238,0.363646865],[0.2289934,0.346685052,0.0410054326,-0.2715028,0.0155111179,0.3270646,-0.286362022,-0.6447934],[-0.4219503,0.308898181,0.119320929,-0.18775326,0.1523424,-0.37103343,-0.243483514,0.368570566],[0.218079627,-0.349387139,-0.419635653,0.279663265,0.187385559,0.635692358,0.238241374,0.07826789],[-0.388709962,-0.4876961,0.260074735,0.31666106,0.0765503347,-0.318111956,0.175332353,-0.119270787]],[[-0.468138516,0.2635523,-0.006957382,0.136490852,-0.502182066,-0.2688732,-0.00079216063,0.322315574],[-0.306598485,0.0439220369,0.287078232,-0.413843632,0.162478864,-0.0273938775,0.0147220194,-0.5399137]]]}
