{"layers":[8,8,8,2],"neurons":[[3.64834976,9.516727,8.452746,6.67775869,6.012872,4.087221,3.4070394,3.257825],[0.9992849,-1.0,0.99986887,-0.9889032,0.9389212,0.9996123,-0.387731969,-0.911529839],[-0.330680132,-0.1269522,0.899698555,-0.9861859,-0.8745682,-0.766041636,0.8870793,0.8435093],[0.934114337,0.332625151]],"biases":[[-0.280850351,-0.2264324,0.588028431,-0.417232454,-0.38757664,-0.1428247,-0.5914753,0.1401718],[-0.175678164,-0.000172019,-0.151053786,-0.25874126,-0.881287932,0.448384166,0.412533224,0.2014181],[0.110471427,-0.35707438,-0.3495031,0.03770922,0.166533977,-0.5819715,-0.279847652,-0.233002082],[0.230276853,0.510944247]],"weights":[[[0.193956748,-0.504690945,0.6416788,0.045433417,-0.03992027,0.5667391,0.4092939,-0.294418454],[-0.06408787,-0.368462831,-0.196895048,-0.333450854,-0.09020653,-0.370200872,0.222473383,-0.247191072],[0.0351600945,0.4881944,0.289591551,0.07010455,-0.4001097,-0.554597259,0.515663564,0.0591541976],[0.150718212,0.04581435,-0.265393674,0.4063103,-0.359264016,0.0862953961,0.330328077,-0.9544263],[0.274390638,-0.0689336658,0.1209376,0.2649753,-0.224418268,-0.454331577,0.589938641,0.205600649],[0.5235714,-0.0472412258,0.5001026,-0.0270893425,0.333499283,-0.647103965,0.0853576958,-0.409010172],[-0.19762972,-0.323868036,-0.20287104,0.405971,0.4611696,-0.08743706,0.166962713,-0.3066653],[-0.351685,0.277083158,-0.323486149,0.386029,-0.281638861,0.011496067,-0.620462954,0.253292024]],[[-0.107619315,0.09425919,0.1975278,0.6929234,0.07168363,0.222350761,-0.496056259,0.270354271],[0.278650045,-0.326747417,-0.188259512,0.04119721,0.0717344,-0.19633913,0.330574721,-0.120999426],[0.581613958,-0.7028613,0.227611467,-0.129324779,-0.2335127,-0.0494677722,-0.6374969,-0.221746475],[-0.726350069,0.5895307,0.207814962,0.294252753,-0.280580819,-0.420586646,0.338366866,0.338143438],[0.00392279029,0.3200211,-0.428621769,0.107746087,-0.14540574,-0.03367211,0.165425882,0.4752208],[0.362943053,-0.206152022,-0.04599978,-0.101838551,-0.409608871,-0.398842156,-0.0217942,0.304353684],[0.563141942,-0.424360573,-0.03679791,0.172305465,0.522628069,-0.00810039,-0.0291343033,-0.45426783],[-0.216867924,-0.371409416,0.75367403,0.235767528,0.397123754,0.6998145,-0.102990866,0.352426618]],[[0.278107822,-0.446605742,0.340076238,-0.2154842,-0.05325161,-0.287395,0.249312863,0.5789738],[0.05966658,0.4795098,0.244534254,-0.09038105,-0.211098522,0.424665928,-0.271230221,-0.0147087574]]]}
