{"layers":[8,8,8,2],"neurons":[[7.21440125,3.376399,2.02739072,1.58522892,0.799993634,0.5351514,0.4421126,0.4197654],[0.9956722,-0.9438446,0.9942663,-0.33537063,-0.6443474,-0.987641633,0.9317044,0.954443455],[-0.832035,-0.5398283,-0.736386359,0.6266634,-0.263408959,-0.802253067,-0.9043712,0.6936233],[0.626868069,0.493417382]],"biases":[[-0.07836515,-0.477348328,0.296487331,-0.287509322,-0.209119737,0.07403058,0.4585662,-0.482840061],[-0.08276361,0.0209872127,-0.435953736,-0.4142052,-0.30128324,-0.384695649,0.102719843,0.05558616],[-0.477080464,-0.16073209,-0.0212141871,0.366879225,0.287448883,-0.129838884,-0.3076725,0.4338261],[0.0354301333,-0.0362291932]],"weights":[[[0.454625368,0.117249787,-0.204538643,-0.09015685,-0.183735311,0.124489605,0.2568375,-0.00407320261],[-0.4685936,0.47219646,-0.136519134,0.10351342,0.457714915,-0.3325367,-0.0101516843,-0.185525477],[0.270923853,0.286576033,0.06195408,0.4888984,-0.112183988,-0.04930991,-0.4096694,-0.3900454],[0.0249690413,0.000346004963,-0.286418676,0.212355956,0.208464131,-0.116773307,-0.2814399,0.3531313],[0.009257376,-0.1139974,-0.293487668,0.4540453,-0.07550138,-0.284855723,-0.430413723,0.314953327],[-0.380242825,-0.35719943,0.428490162,0.241230235,0.419719458,0.438159227,0.284260154,-0.3651333],[0.243964419,-0.103694737,-0.0842437148,0.124990761,-0.108462393,0.436417341,-0.3557726,0.3374772],[0.260573864,-0.142846882,-0.365880251,0.425599456,0.248383865,0.315995336,0.427528262,-0.151099265]],[[-0.491027355,0.0737220645,0.35230267,-0.121553719,0.37756145,0.0296260715,0.155498371,-0.442702532],[0.461671472,0.3011608,-0.0473616719,0.266910434,0.19444488,-0.0617439151,-0.174342692,-0.2674402],[-0.429905534,0.0446686149,-0.473637581,-0.425061464,-0.402763963,0.298080683,-0.184883416,0.08841115],[0.284492731,0.0978227258,0.466117263,0.0378739238,0.0390664935,-0.24775511,-0.253479123,-0.268223882],[0.3627218,-0.268137217,-0.459764481,-0.04745835,0.2836864,0.0895039439,-0.386916518,-0.103258431],[0.451019168,0.2797289,-0.391888618,0.1799836,0.190629348,0.121519983,-0.13093859,-0.3617412],[-0.4694674,0.308190823,-0.03746766,0.384058,-0.3286953,-0.248053968,-0.444723,-0.32071197],[0.105047405,0.2277094,-0.4278295,0.3125353,-0.150468051,-0.423310637,0.207555518,0.3700447]],[[0.008113682,0.198617563,-0.03688568,0.405961871,-0.151424348,-0.353578329,-0.07570022,0.20358251],[-0.438699841,-0.38581574,-0.08433598,-0.18765825,-0.08951992,-0.04817587,0.336982965,0.434719324]]]}
{"layers":[8,8,8,2],"neurons":[[2.63046,2.818117,3.48757315,13.5735531,1.2073766,1.21522272,1.392188,1.70305085],[-0.9871988,-0.995521,0.106584609,0.999693155,-0.8568229,-0.999984443,0.791858733,-0.9999959],[-0.271885276,-0.394007832,-0.716219664,0.153400436,-0.809264064,0.6402833,-0.441118747,0.801945567],[0.499115974,0.6818278]],"biases":[[0.272388518,0.312878728,-0.145574391,-0.2711172,0.5309413,-0.1259606,0.158456385,-0.04804463],[-0.134145573,0.3679188,0.38697955,0.07181132,-0.290023029,-0.377961934,0.3132782,-0.1924878],[0.06045194,-0.194493115,0.382432878,0.12289232,0.3790322,0.338822275,0.1359207,-0.3598743],[-0.1936933,0.5169255]],"weights":[[[0.4070943,-0.430005074,-0.197937742,-0.09985487,-0.354503781,0.363437176,-0.222384557,0.05537361],[-0.261380672,-0.18186982,0.219492942,-0.142151654,-0.430949271,-0.207414508,-0.1050619,-0.0791651756],[0.2995036,-0.0368706435,0.264282227,-0.2440928,0.372409344,0.6076309,-0.128829613,0.245969072],[0.275208235,-0.456743777,-0.360891581,0.4991098,-0.168148279,-0.54211,-0.224999726,0.317945868],[0.325173855,-0.481316477,0.231785581,-0.06670444,0.0756590962,-0.0430926681,0.229246438,-0.441141635],[-0.146606624,0.03617335,0.241612136,-0.471197039,0.419483483,-0.140360892,-0.09228404,0.07334696],[0.0987441242,-0.4340908,-0.4583852,0.09396103,0.593052149,0.33514154,0.2954293,0.302609056],[-0.2464788,-0.121134341,-0.1503328,-0.233274683,-0.310596466,-0.351702631,-0.2172607,-0.3359357]],[[0.158339471,-0.0505579636,0.2404756,0.07543227,0.135144949,0.339352369,-0.0673982054,-0.174103454],[0.4104741,0.07622048,0.159180939,-0.0166323632,0.233204141,-0.326714635,-0.338485718,-0.399856865],[-0.0459703058,0.133197457,0.6198758,0.107905373,-0.0165782571,0.27665633,-0.6658241,0.579310954],[0.427572846,-0.162889257,-0.03616871,0.212841913,-0.140836611,-0.140427008,0.09564753,0.254090428],[0.01085791,0.270822644,-0.442453951,-0.37755543,-0.192184672,0.28059715,-0.3292321,0.422369868],[0.198010847,-0.0258358866,0.0342962444,0.31724447,-0.5585029,-0.210958675,-0.279611349,0.199296772],[-0.150557414,0.167322472,0.422123253,-0.007060945,0.454873681,0.0310674012,-0.440068364,-0.139755875],[-0.4893609,0.141278058,0.0408207029,-0.242742226,-0.251623273,-0.1501136,0.639856,-0.4873986]],[[-0.5533826,-0.2594471,-0.0110177174,-0.4534719,-0.5000104,0.11064285,0.189306855,0.198063284],[0.09780353,-0.395886838,0.219015956,0.01148814,-0.153176561,-0.242021948,-0.254453838,0.3242917]]]}
{"layers":[8,8,8,2],"neurons":[[3.933557,2.369742,1.00773382,0.693013,0.5815371,0.559039831,0.608930349,0.7706574],[-0.9238499,0.629036963,0.345824182,-0.9273233,0.89885354,0.841181,0.00394538976,0.9398107],[0.359443039,-0.217369631,0.360332847,0.007742936,-0.405359954,-0.442493856,-0.816065669,0.3164916],[-0.0817539245,-0.311251968]],"biases":[[0.518858433,0.57352525,-0.009880483,-0.34564352,0.135766879,0.5439001,0.102677643,0.147035331],[0.26372394,0.00431098044,0.217645958,0.268617868,-0.00366312265,-0.0830430239,-0.290045917,-0.3691098],[-0.4565662,0.001837261,0.285211682,-0.304522246,0.296713769,-0.3044344,-0.116657794,0.147589952],[-0.06342609,0.346276343]],"weights":[[[-0.25641197,-0.283141673,-0.199925721,0.29559353,0.29246372,-0.037392363,-0.433281243,-0.113596126],[0.0299890637,0.129677117,-0.441987067,0.4155243,-0.11247389,0.35498625,0.189832866,0.28423506],[0.07725165,-0.3841942,0.3190701,0.5652428,0.0801089853,0.3065834,-0.284307182,-0.0110289752],[-0.312427521,0.146233812,-0.241576388,-0.252783954,-0.191339687,-0.6139268,-0.236990377,-0.0100141913],[0.381944478,0.137856036,-0.409286916,-0.1266941,0.234225139,0.292852163,-0.316406965,0.04385002],[0.23896797,-0.211021617,0.263935328,0.5364679,-0.218710467,0.212410972,0.247751638,0.11436595],[0.245009378,-0.24627921,0.00281268358,-0.382295847,0.388245463,-0.0248868912,0.379563749,-0.346511364],[0.434445322,-0.230089888,0.274107575,0.352674127,-0.338697553,0.356198877,0.09926328,0.465355456]],[[-0.450971723,0.07505828,0.128412217,-0.2672785,0.04287404,0.379582077,-0.07007654,-0.298839033],[0.0605600625,-0.412426174,-0.06627016,-0.26306203,-0.390993476,0.3792711,0.252946019,-0.103174627],[-0.0667124838,-0.65579474,-0.219198421,0.1798907,0.3064844,0.4268187,-0.21319212,0.055212386],[0.04672651,-0.236199737,0.28502053,-0.246458873,-0.4659874,0.140194878,-0.0212395862,0.508514047],[0.456034064,0.5874551,0.174209535,0.257988632,-0.0231445432,-0.0020801425,0.5349742,-0.5060044],[0.06454839,-0.07359992,-0.09415766,-0.293803722,-0.352874517,0.06872767,0.263888,-0.0495027155],[0.627704561,-0.116951242,0.42519173,0.19073604,-0.378230959,-0.311728477,0.525612,0.2714991],[-0.280027539,0.326702356,-0.0680208951,-0.119320378,0.268746257,-0.5323557,0.3018744,-0.176769808]],[[-0.33094427,0.4683854,-0.1523106,0.371584684,-0.0326923579,-0.360104024,-0.138993114,-0.100351661],[0.5509663,-0.0221518725,-0.25721252,0.21042192,-0.0820025951,0.349634767,0.5909082,-0.5571084]]]}
{"layers":[8,8,8,2],"neurons":[[3.620529,1.42795455,0.584922969,0.397971034,0.3319182,0.3175159,0.344087869,0.4324346],[-0.8278448,0.436996579,0.364136428,-0.845438659,0.878013,0.7523085,0.194074988,0.88792026],[0.260418415,-0.130003422,0.396762,0.009453552,-0.332935274,-0.402636,-0.7246484,0.323348463],[-0.04324519,-0.317837566]],"biases":[[0.518858433,0.57352525,-0.009880483,-0.34564352,0.135766879,0.5439001,0.102677643,0.147035331],[0.26372394,0.00431098044,0.217645958,0.268617868,-0.00366312265,-0.0830430239,-0.290045917,-0.3691098],[-0.4565662,0.001837261,0.285211682,-0.304522246,0.296713769,-0.3044344,-0.116657794,0.147589952],[-0.06342609,0.346276343]],"weights":[[[-0.25641197,-0.283141673,-0.199925721,0.29559353,0.29246372,-0.037392363,-0.433281243,-0.113596126],[0.0299890637,0.129677117,-0.441987067,0.4155243,-0.11247389,0.35498625,0.189832866,0.28423506],[0.07725165,-0.3841942,0.3190701,0.5652428,0.0801089853,0.3065834,-0.284307182,-0.0110289752],[-0.312427521,0.146233812,-0.241576388,-0.252783954,-0.191339687,-0.6139268,-0.236990377,-0.0100141913],[0.381944478,0.137856036,-0.409286916,-0.1266941,0.234225139,0.292852163,-0.316406965,0.04385002],[0.23896797,-0.211021617,0.263935328,0.5364679,-0.218710467,0.212410972,0.247751638,0.11436595],[0.245009378,-0.24627921,0.00281268358,-0.382295847,0.388245463,-0.0248868912,0.379563749,-0.346511364],[0.434445322,-0.230089888,0.274107575,0.352674127,-0.338697553,0.356198877,0.09926328,0.465355456]],[[-0.450971723,0.07505828,0.128412217,-0.2672785,0.04287404,0.379582077,-0.07007654,-0.298839033],[0.0605600625,-0.412426174,-0.06627016,-0.26306203,-0.390993476,0.3792711,0.252946019,-0.103174627],[-0.0667124838,-0.65579474,-0.219198421,0.1798907,0.3064844,0.4268187,-0.21319212,0.055212386],[0.04672651,-0.236199737,0.28502053,-0.246458873,-0.4659874,0.140194878,-0.0212395862,0.508514047],[0.456034064,0.5874551,0.174209535,0.257988632,-0.0231445432,-0.0020801425,0.5349742,-0.5060044],[0.06454839,-0.07359992,-0.09415766,-0.293803722,-0.352874517,0.06872767,0.263888,-0.0495027155],[0.627704561,-0.116951242,0.42519173,0.19073604,-0.378230959,-0.311728477,0.525612,0.2714991],[-0.280027539,0.326702356,-0.0680208951,-0.119320378,0.268746257,-0.5323557,0.3018744,-0.176769808]],[[-0.33094427,0.4683854,-0.1523106,0.371584684,-0.0326923579,-0.360104024,-0.138993114,-0.100351661],[0.5509663,-0.0221518725,-0.25721252,0.21042192,-0.0820025951,0.349634767,0.5909082,-0.5571084]]]}
