{"layers":[8,8,8,2],"neurons":[[2.82241225,0.6756547,0.292749375,0.20244059,0.170423031,0.164256409,0.17940335,0.227909416],[0.7432856,-0.517552435,-0.717075348,0.878137648,0.8421925,-0.2810344,-0.7813559,0.30353117],[-0.8162504,0.4943395,-0.435818732,0.7968412,0.260738254,-0.634775043,0.6524354,0.3594137],[0.533703,0.08718122]],"biases":[[-0.06348199,0.183799371,0.379987836,0.0231633782,0.421561122,-0.422042251,0.087246,0.0549981],[-0.128784,-0.03031677,0.138316974,-0.240166128,-0.0249249339,-0.08820051,-0.2883774,-0.327277064],[-0.3512324,0.07341117,-0.497204542,0.4747553,0.3008362,0.12307018,0.4343258,-0.299394846],[0.0644063354,-0.01066941]],"weights":[[[0.367404222,0.008832991,-0.3511088,0.2196803,0.477220774,0.347281575,-0.168515861,-0.027180016],[-0.169050038,0.09386355,-0.358135939,-0.388277173,-0.0363544822,-0.0875349641,0.07420212,0.270916224],[-0.3907187,0.1871048,-0.3701942,0.3763671,-0.305818558,-0.07743889,0.267471075,-0.06375009],[0.490814567,0.328912735,0.409154534,-0.435086846,0.155886278,0.477808952,-0.316315174,-0.350036979],[0.410552144,-0.1899578,0.483159542,0.3326292,0.217402682,0.160493478,-0.108200729,-0.129841864],[-0.178454459,0.119140923,0.08707434,0.3309213,0.4151361,-0.327142,0.4803952,0.117979705],[-0.186317742,-0.494864345,0.487631559,-0.443093181,0.133048758,-0.221678555,-0.239916146,0.454054832],[0.422126532,-0.372228026,-0.3043443,-0.182306945,-0.192256272,-0.137733281,-0.367851377,-0.227505386]],[[-0.174470842,0.458628416,-0.0359439254,0.08191818,-0.0570450425,0.49552238,0.2820388,-0.386236668],[0.4685707,-0.31459856,-0.387749672,0.217330679,-0.195902288,-0.207770288,0.335992575,-0.469449639],[0.0561719537,-0.421075344,0.465643764,0.212844476,0.15233098,0.476685524,-0.04294926,-0.363798022],[-0.08135229,0.292452574,-0.450637221,0.373942018,0.0602168441,0.4724201,-0.331275225,-0.004395187],[-0.360629082,-0.315850377,0.128318414,0.4693781,-0.470763922,0.17247878,-0.284139037,-0.08759099],[-0.3433156,0.387377143,0.191658959,-0.322712541,-0.354046345,-0.129450023,-0.20456177,0.349240661],[-0.260995626,0.205370769,-0.187538922,-0.328366876,0.397037983,-0.2799276,-0.462681055,0.08166438],[0.123817146,0.250094175,-0.07357329,0.327550769,-0.1346063,-0.496041775,-0.303503036,0.360543251]],[[0.3024789,0.004184544,-0.382105947,0.4755298,0.0291928649,-0.0795956254,0.2645024,-0.001185],[0.163128957,-0.260761619,0.291456819,0.403925657,0.1980903,-0.29441607,-0.07262069,-0.0719735]]]}
{"layers":[8,8,8,2],"neurons":[[0.343629748,0.33771202,0.376656145,0.492961615,0.863933146,8.80088,6.753032,5.33973026],[-0.9966426,0.9988878,-0.9995808,0.9272649,0.9960791,0.986292064,-0.9906684,-0.9999823],[-0.140230566,-0.7170871,-0.549483359,0.359399766,-0.2753623,0.832968354,-0.1005356,-0.471209049],[-0.140329048,0.354784727]],"biases":[[0.241308749,0.316064447,-0.117991745,0.4140595,0.0193754211,-0.183247909,-0.254549563,0.0532581955],[-0.456263244,0.198039681,0.233099371,0.143692359,-0.518952966,0.22838971,0.276113629,0.383366168],[-0.445937783,0.0116987526,0.142161116,0.03981042,-0.0102069229,-0.5462082,0.567591667,-0.5758939],[0.6194095,0.430013657]],"weights":[[[-0.4513836,0.331478715,-0.5786924,0.03445044,-0.120845452,0.204213858,-0.369228721,-0.317067742],[0.3435413,0.459666133,-0.366217673,0.258540154,0.198759556,0.5494397,-0.2807985,0.0327990651],[-0.195928589,0.221936271,-0.109420404,-0.4322195,-0.435688138,-0.5255326,0.170504272,-0.069539845],[-0.319195271,0.0208641738,0.303883016,0.257466257,-0.548553944,0.477091163,-0.5574244,0.261339],[0.657382965,-0.489473224,0.0260209441,0.231690392,-0.230749384,0.108651951,0.284774661,0.144328937],[0.3728614,-0.301684141,-0.288507938,-0.122729942,0.22380881,-0.0394314378,0.4070426,-0.0360572934],[-0.16986151,0.09094088,0.0227384642,-0.0745842159,0.1561264,-0.3157364,0.06452781,-0.129884377],[-0.136836231,0.433010638,-0.06380691,0.326865077,-0.151772767,-0.309395254,-0.200808,-0.417036563]],[[0.112384617,0.2047963,0.114977777,0.585701346,-0.356675148,-0.3297081,-0.1330461,-0.332711518],[0.280417979,-0.11509072,-0.1162879,-0.08674835,-0.5639912,-0.317259043,0.0374560952,-0.35712],[0.329411149,0.1777751,0.490960956,0.113497078,-0.444909424,-0.112626165,-0.288641751,-0.0447388],[0.401286036,0.2787895,-0.3898809,-0.0369978547,0.184142813,-0.02021557,-0.414192021,0.471382827],[-0.110392094,-0.252336979,-0.494280934,-0.2824362,-0.339271367,0.470365167,0.148060992,0.34189868],[-0.161819026,0.491567433,0.018209897,0.274400353,-0.319626629,0.6430105,-0.03713817,-0.5028213],[-0.695197,-0.596280754,0.139427453,-0.293672264,-0.20040594,-0.09493975,0.1507615,-0.08858226],[-0.260094643,-0.4843616,-0.222870931,0.1983384,0.128705859,-0.329427,0.0439523757,-0.1224367]],[[-0.311545849,0.532252967,0.168862447,0.0328969136,-0.397426248,-0.464820683,0.142582566,0.105354317],[-0.365504742,0.0167186558,-0.0168795288,-0.0160208344,-0.42437166,-0.0241353661,0.396549731,0.336951673]]]}
