{"layers":[8,8,8,2],"neurons":[[2.434837,3.28505158,8.846235,7.867458,6.607695,5.937101,4.41284,3.88412952],[-1.0,0.99999994,0.969066441,0.9880965,0.6745305,1.0,-0.8828492,1.0],[-0.99865365,-0.97569567,-0.6898805,-0.416332871,0.320052415,-0.7654109,-0.9460855,-0.8675124],[0.938203037,0.6031392]],"biases":[[0.5930621,0.5851415,-0.2620651,0.3436823,0.8200133,-0.4080392,0.0360114276,0.8724089],[0.108846813,-0.2887495,-0.490576267,0.07495074,-0.9885311,0.779635251,0.148801163,-0.484522581],[0.172598064,0.562045336,-0.5673068,0.333770275,-0.555705,-0.181733221,0.983537853,1.138854],[0.641237557,-0.203547776]],"weights":[[[-1.08449471,0.562532365,0.3170596,-1.5010432,-0.342096567,-0.9145448,-0.0880228356,0.43703562],[0.240322888,-0.8762305,0.217928261,0.09563196,0.8989366,-0.1992355,-0.271333516,1.26489484],[0.09185685,0.224812254,0.565092,0.5027846,-0.9867509,-0.346983671,0.413283765,-0.152663887],[0.05503814,-0.7426372,-0.197120279,-0.153305516,-0.4773311,1.30116117,1.04921794,-0.376277447],[-0.3956517,0.348858416,-0.112522051,0.6038662,-0.151027262,0.233125791,-0.814883769,0.27784276],[0.260532141,-0.6725277,0.263311118,0.476507127,1.27377081,0.241220221,-0.0239731669,0.06215912],[-0.626563132,-0.105387539,-0.321943462,-0.213078484,0.3674685,-0.318186879,1.10338843,-0.141414851],[0.699436367,-0.7217055,1.32238913,0.0705775,0.5093385,1.99561155,-0.6178792,0.590806961]],[[-0.210748017,-0.8439433,-0.391648561,-1.03492808,-0.243813679,-0.7452209,-0.434570253,-1.26265],[0.1905177,0.7257059,-0.327863455,-1.04453456,-0.185190052,-0.7640397,0.4416178,-0.6675837],[0.205248863,-0.4565037,-1.0213027,0.35091573,0.633329332,0.004902862,0.273295,0.833478749],[0.134260863,0.420422137,0.503957748,-0.973579943,0.168260276,-0.430468559,0.04107499,-0.236321986],[-0.03225617,-0.442465961,0.707026064,-1.10117745,0.2188649,0.664881,-0.42171514,0.5157117],[-0.519393146,-0.08349972,0.189147785,-0.4571272,-0.6798439,0.216425434,0.8623126,0.008519113],[1.20837557,-0.6475116,0.07999156,-0.5029747,-0.9139053,0.0153557658,-0.2593608,-0.129143536],[-0.0583831221,-0.04517974,-0.8198798,0.49131757,-0.198379025,-0.3587423,0.5577722,-1.18096161]],[[-0.0388454944,-0.03045629,-0.3016827,0.909841835,0.910679,-0.7367336,0.256583482,-0.6583623],[-0.362834483,-1.05860972,-0.8599778,0.2220805,-0.9334302,0.475826234,0.0772531,0.297860444]]]}
