{"layers":[8,8,8,2],"neurons":[[4.55267143,5.64923573,11.3314524,3.26820469,1.85175908,0.713420153,0.4406577,0.349252],[0.9461948,0.9991677,-1.0,0.999972165,0.625539064,0.556305945,-0.999999642,-0.9999733],[0.442480117,0.130174845,0.5211892,0.108200178,0.187341973,-0.5156826,0.223726243,0.207821012],[0.441022545,0.448740929]],"biases":[[0.155526578,-0.202891231,-0.353502333,-0.09963003,0.00401519239,0.04042776,0.5482985,0.247610793],[0.32121405,0.341038346,-0.132355124,0.08120453,0.5257032,0.29378745,0.0870380551,-0.0438327938],[0.196325958,0.372735322,0.254666865,-0.0418089032,0.278405726,-0.131817609,0.2537393,0.0717995539],[0.0142088979,0.319435239]],"weights":[[[0.0265795588,0.314214051,-0.272491217,0.430079162,0.404100358,0.277505338,0.347210944,0.457258433],[-0.24412556,0.475434124,0.191893876,-0.141453341,0.150908172,0.131740615,-0.240138873,-0.00915546],[-0.20973596,-0.6697245,-0.5889026,0.182995975,0.307594359,-0.192484915,0.383349538,-0.0303839147],[-0.0374525934,0.505879641,0.3612852,-0.4600014,-0.03195204,0.0587729961,0.3796625,0.236246631],[-0.236974418,0.02035699,0.196267948,-0.3438648,0.23936592,-0.2578014,-0.136495814,-0.364046574],[-0.00695581734,-0.6910524,0.319563746,0.151451409,0.06498414,-0.271780223,0.327554852,0.235900238],[-0.05420734,-0.623488069,-0.417485863,-0.2222045,0.4226207,0.490899563,0.2091673,0.39369607],[-0.495880485,-0.3182873,-0.08914535,-0.09061168,-0.169213727,0.204481453,-0.08488801,-0.00305011868]],[[0.4749756,-0.07317096,0.330099821,0.213571116,-0.217622563,-0.459234834,0.05347661,-0.4643053],[0.238543585,0.166614965,0.474685133,-0.1612224,0.293795645,-0.35538,0.291273981,-0.307101846],[0.3427344,0.255736232,0.361754745,-0.301973522,0.102290496,0.149238482,0.0388183,-0.2990245],[-0.0393143743,-0.0274239928,-0.355663955,-0.478527844,0.144315943,-0.518165767,-0.1959027,-0.339975],[-0.169654533,-0.311705768,0.05096963,-0.3278951,0.165174276,-0.177019179,-0.3757332,-0.38143447],[-0.240335464,-0.427465558,0.196653917,0.1976402,0.550347567,0.275890946,0.5353026,-0.252475917],[0.2526837,0.19260864,0.267192,-0.07692318,-0.152385324,-0.142775744,-0.42485255,0.363699466],[0.0621362329,0.307230353,0.154931217,-0.2404758,0.105205834,0.204099312,-0.310181081,0.3208155]],[[-0.14238596,0.311412036,0.347449183,0.470043272,0.153236732,-0.2878185,0.582760036,-0.2776393],[-0.171115935,0.3389242,-0.141156659,-0.249154732,0.519357443,-0.279469,-0.151321247,0.424649477]]]}
