{"layers":[5,8,8,2],"neurons":[[3.52945,9.005209,6.34773731,4.02977276,2.95569873],[0.996906161,-1.0,-1.0,-0.9871014,1.0,-1.0,-0.9999808,-1.0],[-0.232814655,-0.994816,-0.781338453,0.999987841,-0.914098442,0.955133,-0.99999994,0.875929356],[0.9998191,0.525816739]],"biases":[[0.558551,-0.5602497,1.31608725,-0.642936,-3.005917],[-0.727293134,-1.58898079,-0.8735477,0.7481161,0.1852523,-1.37300587,0.9925468,-0.1128256],[0.101410076,-0.0167289525,2.41940379,1.91585088,-0.6302471,-1.12707448,0.2930335,-0.164833263],[0.0618820339,1.34642422]],"weights":[[[-0.247591913,0.6961873,0.0571572781,0.117684916,-0.768092334],[-0.774084449,-0.032791093,-1.71623492,-2.88146687,-0.47496444],[-2.650906,-2.215692,0.198558852,-0.710492969,0.181225449],[0.9395411,-0.381174624,1.08921528,-0.8715465,-2.2168014],[0.05520037,2.439244,-0.3789329,-0.3460921,0.277255654],[-1.62286615,0.1008437,0.161236927,-1.76096261,0.8759097],[0.384626627,-2.10338116,0.925694346,0.9295557,0.4032759],[0.4263829,-1.25165963,-0.8944961,0.421093166,-2.59403586]],[[1.15208423,-0.709314466,-1.39615381,1.73354661,1.87047911,1.064059,0.280316055,2.40748477],[-1.135509,0.105074123,-0.268537521,0.542003334,-0.492045641,-1.11875618,1.0821749,1.00064909],[-0.141045466,1.35992181,0.970677733,0.5715313,0.670688868,-0.547574461,0.118027478,1.53307164],[0.1400495,-0.357835352,-0.42887038,0.6150499,2.22055531,-2.11507344,0.5526129,0.0117011145],[0.6775699,0.8371739,-0.5178556,-0.9540452,-1.67215955,0.988134,0.4127912,-0.853529155],[-0.145587146,-0.530511141,0.9297643,-3.47869539,0.8725877,0.006188296,1.4268446,-0.685312748],[-1.48826373,-1.09941375,1.90833116,1.05377269,-0.963609636,1.54197252,-0.191961512,3.54133439],[0.9016096,-0.811592,2.566299,1.59800673,2.53370667,-0.5371942,-1.41846538,0.533220351]],[[0.125941575,-1.67219138,-0.121965483,-0.322380662,-0.523308158,-0.4571185,-1.46449065,1.91813469],[-0.00314901024,0.223817125,1.060488,1.06024277,0.60861063,0.9873063,0.775052,-0.437719762]]]}
