{"layers":[8,8,8,2],"neurons":[[7.37726355,3.93865466,2.92336822,0.9118998,0.559896,0.442466468,0.4062607,0.4226556],[0.569981158,0.999973,0.9994756,-0.4566202,-0.6234452,0.999898851,0.929529965,-0.96642],[-0.76857394,-0.111656114,0.654132545,0.6527828,0.125052527,0.7458167,-0.148137,0.8259378],[0.5537723,-0.2142663]],"biases":[[-0.3388505,0.311738729,-0.411514521,-0.125294983,-0.18975693,-0.387524366,0.201523051,0.465748668],[-0.426069856,0.429193854,0.15760158,0.0626964,-0.397777081,0.226486191,-0.478664637,0.458720326],[-0.4239539,-0.0382426381,0.484631658,0.27097702,-0.220654666,0.07689983,0.0325742364,0.171751484],[0.372426271,0.209213123]],"weights":[[[0.190164313,0.0642454,-0.1880849,0.3922615,-0.141557157,-0.430669069,0.115261257,-0.395693183],[0.41574657,0.130760059,0.4816221,0.209558353,0.361382961,0.2206826,-0.468294144,-0.269821763],[0.406369925,0.1220513,0.3392583,-0.403070569,0.3507614,-0.3529594,-0.209283412,-0.218950331],[-0.201696575,0.204479918,-0.09294075,0.214364514,0.304110527,-0.145565331,-0.0897043347,0.316252232],[0.267520428,-0.3370806,-0.305776238,0.19996725,0.277173042,-0.318499923,-0.206513464,-0.46748805],[0.4355594,0.3602419,0.0356257558,-0.09618777,-0.22817713,0.1396799,0.100018442,0.22774981],[0.341402054,-0.2991072,0.241340384,0.4500934,-0.0023893714,-0.258195758,-0.08194107,-0.4117831],[-0.254228354,-0.06189388,-0.06592053,-0.374670982,0.205479965,-0.288521647,0.2896682,0.129783854]],[[-0.0298143029,-0.30497992,-0.317437649,-0.414958477,0.248853549,0.3849535,-0.2868724,0.109925091],[-0.123865545,0.399073243,-0.427438974,0.317435861,0.108829439,-0.0147951245,0.139838085,-0.126734912],[-0.250650764,0.0945181251,0.09518117,0.130938873,-0.28057003,-0.0874607,0.0310788751,-0.201266825],[0.07229215,-0.18827337,0.318033934,0.447331548,0.220397815,0.464969277,-0.1730923,-0.389054775],[0.398864031,-0.138796747,0.0303781629,-0.230570972,-0.1434887,-0.248614252,0.367089152,0.0620029569],[0.443244338,-0.249539435,0.21766077,-0.08884865,-0.489553928,-0.2251001,0.106547654,-0.46166718],[0.10455066,-0.47822094,0.2962693,-0.227055252,0.1649097,0.0140550733,-0.315477967,-0.2266298],[0.08106822,0.386485815,0.338139772,-0.283316016,0.07444197,-0.19392544,0.492829561,0.118302405]],[[0.494808435,0.1890087,0.1810007,-0.150885761,-0.154438913,0.493236184,0.126386747,0.366915345],[-0.243162453,0.357486844,-0.134360373,-0.290688753,-0.3678962,-0.3766613,0.06969887,0.04972917]]]}
