{"layers":[8,8,8,2],"neurons":[[2.66910315,9.920185,8.431639,7.203529,6.28560972,5.28172731,4.132217,3.76675129],[-0.247336283,-0.9999973,0.999940634,0.9999933,-0.528622866,-0.116599843,0.9999981,-0.9999938],[-0.615983844,-0.616418064,0.788086057,0.5561116,0.690460861,0.245310992,0.8568319,0.316329032],[0.651093662,-0.7455744]],"biases":[[-0.74740237,0.219912872,-0.281147838,-0.453659326,-0.144436181,-0.60862875,0.260573059,0.6503066],[0.336468667,0.2637884,0.482904375,-0.286662877,0.07304284,-0.282757819,-0.191715434,0.377935],[0.424620658,-0.2842117,0.5374895,-0.0368271023,0.383110672,-0.0167331249,0.383516133,0.347993851],[-0.0868045539,0.0165272132]],"weights":[[[-0.303440034,-0.299162865,-0.207831234,0.688303947,0.513447,-0.369357884,-0.3939309,0.08869456],[0.330442041,-0.5744854,0.11226476,-0.08979599,0.177120209,-0.761847138,0.4051389,-0.337174],[-0.09881616,0.565394461,0.317264736,-0.3541719,-0.208107278,-0.332930118,0.1593736,0.443056226],[0.193198249,0.0432908833,0.503354967,0.234059855,-0.431645542,0.0349140242,0.242827386,0.330059767],[-0.02992259,-0.3088174,0.107908189,0.114801429,-0.2980896,0.299597979,-0.251908839,0.551541746],[-0.660091758,-0.6638301,0.451584965,0.229934067,-0.249077588,0.3324523,0.5111821,0.1981083],[-0.392899275,0.388139933,0.3447794,0.523694158,-0.1413925,-0.2736457,-0.296749443,0.319323868],[-0.233907491,0.008466989,-0.258206427,0.317637265,0.170813069,-0.7548727,-0.4256271,-0.4303387]],[[-0.07729706,0.4647665,0.484654,-0.30587998,0.2720045,-0.111602485,-0.2745067,0.470950067],[0.211397991,0.3243432,-0.145869151,-0.109025195,-0.189968243,-0.145381942,-0.190198213,-0.2693445],[-0.2601779,0.07422161,0.486430347,0.4352981,-0.340182662,-0.5869107,-0.287615955,0.343604356],[0.165884987,0.354185164,0.4814209,0.430581629,0.1347893,0.5328462,-0.0224832,-0.303123236],[0.4422393,-0.3138094,-0.472347081,0.204864681,-0.1850142,-0.05632264,0.605196953,0.180812582],[-0.78225857,-0.209354892,0.153053358,-0.46051538,-0.7772697,-0.234443188,-0.283677518,-0.017241776],[-0.402298331,-0.30504024,0.07089555,0.227285475,-0.06789304,-0.165324926,0.4978088,0.3579067],[0.179609373,-0.213325858,-0.0114410371,-0.326444149,0.101732709,0.2512981,0.132552177,-0.0990780145]],[[0.7579336,-0.524872839,0.589296758,-0.162756741,0.202649578,-0.650583446,0.6902876,0.1948628],[0.07864444,0.6402363,-0.472763538,0.3821208,-0.4580161,-0.16054903,-0.2396014,0.5837463]]]}
