{"layers":[8,8,8,2],"neurons":[[11.0085211,8.985376,7.412417,6.226449,4.70233536,3.49580455,3.07738471,3.08022642],[1.0,-1.0,0.9999894,-0.99999845,-0.99984473,-0.99999845,0.9841535,0.6344666],[-0.9918441,0.9733676,0.252219647,0.953721046,0.8950465,0.780142963,-0.9183279,-0.979879737],[0.9974585,0.8897623]],"biases":[[0.556974053,0.111215189,0.2118374,0.3722094,0.467561275,0.402023733,-0.290324062,-0.60106504],[0.0451344475,-0.5689351,-0.2257049,-0.273660481,0.137634024,0.09494974,-0.3413664,0.197805032],[-0.208441257,0.783816338,0.4753163,-0.0280598924,-0.138019234,0.847004,-0.0449165553,-0.736159],[0.006899968,0.5314642]],"weights":[[[0.5964105,0.255190134,0.517773867,0.8400047,0.233569548,0.0459964052,0.00215806812,-0.9817876],[-0.7877885,0.103703782,0.118937619,-0.334797621,-0.267750323,-0.250102341,0.5712697,-0.405885935],[0.77549094,-0.453706235,-0.4571885,0.9240351,0.09547861,0.5326738,-0.18084605,-0.7401745],[-0.567076862,0.223375991,0.228422552,-0.4883352,0.323577285,-0.312545568,-0.434086025,-0.09021549],[-0.2020855,-0.258889735,-0.230386,0.423707068,-0.0618238226,0.455390632,-0.8891926,0.0604319423],[-0.5107188,-0.5840963,-0.0238087848,0.163486809,0.285999864,0.4297157,-0.189666584,0.2077021],[0.022384584,-0.0999361,1.14770949,0.0500981063,-0.387690842,-0.8860598,-0.0222438648,-0.137109458],[-0.2743038,0.563694358,-0.0129655451,0.5614663,-0.433084369,0.162747249,-0.4401064,-0.672729]],[[-0.447341323,0.181873828,-0.650962234,0.484073222,0.7074293,-0.191938683,-0.4183591,0.23761113],[0.06587568,-0.256922662,-0.128686637,0.100064859,0.222191945,0.160191029,1.2736299,0.636314],[0.236258,-1.28401935,-0.3549198,0.2839164,0.436601818,0.176667437,-0.349951029,-0.22282207],[0.06670722,-0.489335775,-0.221646085,-0.432778776,0.00347381085,-0.239921108,0.3976693,0.7951076],[1.02267337,0.116200387,0.617317855,-0.176187277,0.314077973,0.038260743,0.387249321,-0.227016434],[-0.223230481,0.1453747,-0.435251057,-0.281030536,-0.257106245,-0.849324942,-0.198102161,-0.2992651],[-0.973612547,-0.297339916,0.145277739,0.394350827,-0.3040787,0.357391059,-0.465758562,-0.151700109],[-0.26589936,0.29164654,-0.29782027,0.127972856,-0.183253765,0.0479352623,-0.293535,-0.664249539]],[[0.016580686,1.11047614,0.2147991,0.849743962,0.388432354,0.496116459,-0.858397245,0.12807864],[-0.5839224,-0.6021179,-0.159511387,-0.166750818,0.0789772943,0.7073405,-0.7708946,0.2397661]]]}
